-0.009285714285714286,0.02,0.02,0.017857142857142856,-0.014285714285714285,-0.01,0.012857142857142857,0.013571428571428571,0.022142857142857141,0.019285714285714285,0.017857142857142856,-0.014999999999999999,0,-0.018571428571428572,-0.00071428571428571429,0.0021428571428571425,0.0057142857142857143,0.0064285714285714285,0.029999999999999999,-0.012142857142857143,-0.028571428571428571,0.0071428571428571426,0.0021428571428571425,-0.018571428571428572,0.03428571428571428,0.009285714285714286,-0.013571428571428571,-0.03428571428571428,0.033571428571428572,0.031428571428571424,0.014285714285714285,0.024999999999999998,-0.027857142857142855,0.0035714285714285713,-0.031428571428571424,-0.02,-0.011428571428571429,-0.00071428571428571429,0.019285714285714285,0.014999999999999999,0.030714285714285711,-0.0035714285714285713,0.035714285714285712,-0.022142857142857141,0.014285714285714285,-0.011428571428571429,0.034999999999999996,-0.014999999999999999,-0.02,0.0064285714285714285,0.034999999999999996,-0.0064285714285714285,0.0085714285714285701,-0.032857142857142856,0.018571428571428572,-0.0078571428571428559,0.024285714285714285,-0.021428571428571429,-0.0014285714285714286,-0.01714285714285714,0.02,0.03428571428571428,0.017857142857142856,0.024285714285714285,-0.03428571428571428,-0.009285714285714286,-0.0078571428571428559,-0.0057142857142857143,0.020714285714285713,-0.021428571428571429,-0.027857142857142855,0.03428571428571428,0.029285714285714283,0,0.02357142857142857,-0.0050000000000000001,-0.0035714285714285713,-0.034999999999999996,-0.014999999999999999,0.010714285714285714,-0.034999999999999996,-0.025714285714285714,0.034999999999999996,-0.011428571428571429,0.02,0.021428571428571429,-0.0071428571428571426,-0.020714285714285713,0.035714285714285712,0.031428571428571424,-0.024285714285714285,-0.018571428571428572,0.028571428571428571,-0.0021428571428571425,0.01,-0.0050000000000000001,-0.0035714285714285713,-0.025714285714285714,-0.03214285714285714,-0.027857142857142855,0.033571428571428572,-0.022142857142857141,0.009285714285714286,-0.027142857142857142,0.029999999999999999,-0.0085714285714285701,-0.02357142857142857,0.028571428571428571,-0.034999999999999996,0.022857142857142857,-0.01,0.033571428571428572,0.025714285714285714,-0.024999999999999998,0.016428571428571428,-0.0071428571428571426,-0.009285714285714286,-0.021428571428571429,-0.0057142857142857143,0.015714285714285712,0.012142857142857143,-0.021428571428571429,0.029285714285714283,0.0028571428571428571,0.025714285714285714,-0.0064285714285714285,0.030714285714285711,0.0028571428571428571,-0.00071428571428571429,-0.02357142857142857,-0.012857142857142857,-0.0071428571428571426,-0.0057142857142857143,-0.0064285714285714285,0.014285714285714285,-0.019285714285714285,0.00071428571428571429,-0.013571428571428571,-0.019285714285714285,0.0014285714285714286,0.024285714285714285,-0.018571428571428572,0.011428571428571429,0.019285714285714285,-0.0078571428571428559,-0.03428571428571428,0.03214285714285714,0.029285714285714283,-0.03214285714285714,0.022857142857142857,-0.016428571428571428,-0.0035714285714285713,0.018571428571428572,-0.028571428571428571,0.030714285714285711,-0.0057142857142857143,-0.0057142857142857143,0.019285714285714285,0.012142857142857143,-0.012142857142857143,0.0078571428571428559,-0.016428571428571428,-0.0042857142857142851,-0.0028571428571428571,0.029285714285714283,-0.028571428571428571,-0.022857142857142857,0.01,0.01,-0.012142857142857143,0.027142857142857142,0.0078571428571428559,0.03428571428571428,-0.032857142857142856,-0.027142857142857142,-0.00071428571428571429,-0.014999999999999999,-0.018571428571428572,-0.0078571428571428559,-0.022142857142857141,-0.0085714285714285701,0.0042857142857142851,0.0050000000000000001,0.024285714285714285,0.01,-0.021428571428571429,-0.028571428571428571,-0.020714285714285713,-0.017857142857142856,0.02,0.035714285714285712,0.020714285714285713,0.01714285714285714,0.0085714285714285701,0.010714285714285714,0.022142857142857141,-0.0021428571428571425,0.020714285714285713,-0.029285714285714283,0,-0.009285714285714286,0.0028571428571428571,-0.013571428571428571,-0.0042857142857142851,-0.029999999999999999,0.029999999999999999,0.026428571428571426,-0.01,-0.013571428571428571,-0.0042857142857142851,-0.027142857142857142,-0.016428571428571428,-0.02357142857142857,0.0057142857142857143,0.01714285714285714,0.021428571428571429,-0.033571428571428572,-0.022142857142857141,0.009285714285714286,0.0035714285714285713,0.029999999999999999,0.01,0.010714285714285714,0.022142857142857141,-0.024285714285714285,0.0078571428571428559,-0.021428571428571429,-0.012142857142857143,-0.010714285714285714,0.0064285714285714285,0.0085714285714285701,-0.019285714285714285,-0.0014285714285714286,-0.021428571428571429,-0.031428571428571424,0.017857142857142856,0.033571428571428572,0.028571428571428571,0.022142857142857141,0.0042857142857142851,0.03428571428571428,0.011428571428571429,-0.02,0.0050000000000000001,-0.025714285714285714,-0.014285714285714285,0.016428571428571428,-0.022142857142857141,-0.029999999999999999,0.0028571428571428571,-0.011428571428571429,0.024285714285714285,-0.01714285714285714,-0.0014285714285714286,-0.027857142857142855,-0.027142857142857142,0.0057142857142857143,0.010714285714285714,0.009285714285714286,0.0085714285714285701,0.01714285714285714,0.031428571428571424,0.018571428571428572,-0.009285714285714286,0.022142857142857141,0.011428571428571429,0.01,0.027142857142857142,0.02,0.0057142857142857143,0.014999999999999999,-0.0078571428571428559,0.0021428571428571425,-0.027857142857142855,0.015714285714285712,0.00071428571428571429,-0.018571428571428572,-0.025714285714285714,-0.017857142857142856,0.034999999999999996,-0.01,-0.022857142857142857,-0.029999999999999999,-0.027142857142857142,0.01,0.016428571428571428,-0.01,-0.014285714285714285,-0.0042857142857142851,0.035714285714285712,-0.024999999999999998,0.0071428571428571426,0.014285714285714285,-0.021428571428571429,-0.034999999999999996,0.016428571428571428,-0.014999999999999999,-0.0064285714285714285,-0.020714285714285713,0.029999999999999999,0.00071428571428571429,-0.022857142857142857,-0.025714285714285714,0.016428571428571428,0.033571428571428572,-0.009285714285714286,0.035714285714285712,-0.02,-0.012857142857142857,-0.0064285714285714285,-0.018571428571428572,-0.0064285714285714285,-0.025714285714285714,0.019285714285714285,0.014285714285714285,-0.025714285714285714,-0.009285714285714286,0.017857142857142856,0.0057142857142857143,0.00071428571428571429,0.009285714285714286,-0.012142857142857143,0.010714285714285714,0.031428571428571424,0.026428571428571426,-0.011428571428571429,-0.01,0.0064285714285714285,0.029999999999999999,0.012857142857142857,-0.018571428571428572,0.012142857142857143,-0.0078571428571428559,0.027142857142857142,-0.02357142857142857,-0.012857142857142857,-0.012142857142857143,-0.019285714285714285,0.019285714285714285,0.0021428571428571425,-0.00071428571428571429,-0.029999999999999999,-0.0064285714285714285,0.0021428571428571425,-0.024999999999999998,0.022142857142857141,0.011428571428571429,-0.030714285714285711,0.03428571428571428,-0.022142857142857141,-0.0078571428571428559,0.016428571428571428,-0.0078571428571428559,-0.0042857142857142851,0.03214285714285714,0.033571428571428572,-0.025714285714285714,0.03214285714285714,0.030714285714285711,0.020714285714285713,0.019285714285714285,0.02357142857142857,0.0064285714285714285,-0.018571428571428572,-0.016428571428571428,0.021428571428571429,-0.013571428571428571,0.017857142857142856,-0.0057142857142857143,-0.022857142857142857,-0.033571428571428572,0.03428571428571428,-0.029999999999999999,-0.031428571428571424,0.01,-0.016428571428571428,0.022857142857142857,0.028571428571428571,0.02,-0.033571428571428572,0.029285714285714283,0.01,0.030714285714285711,-0.025714285714285714,-0.0078571428571428559,0.0057142857142857143,-0.01714285714285714,-0.0064285714285714285,-0.013571428571428571,0.029999999999999999,0.012857142857142857,-0.03214285714285714,-0.012857142857142857,0.014285714285714285,-0.009285714285714286,-0.02357142857142857,-0.022857142857142857,0.012857142857142857,0.03428571428571428,-0.0035714285714285713,-0.027142857142857142,-0.021428571428571429,-0.0028571428571428571,-0.027857142857142855,0.012857142857142857,0.02357142857142857,0.033571428571428572,-0.028571428571428571,0.035714285714285712,-0.031428571428571424,0.024285714285714285,0.028571428571428571,0.02357142857142857,0.03428571428571428,-0.0021428571428571425,0.024285714285714285,-0.01,-0.028571428571428571,0.017857142857142856,0.03428571428571428,0.016428571428571428,-0.0071428571428571426,0.016428571428571428,-0.018571428571428572,0.020714285714285713,0.0028571428571428571,0.014999999999999999,0.01,-0.0035714285714285713,0.0028571428571428571,-0.009285714285714286,0.020714285714285713,-0.03428571428571428,-0.032857142857142856,-0.031428571428571424,0.024999999999999998,-0.027857142857142855,0.0035714285714285713,0.029999999999999999,0.015714285714285712,0.0078571428571428559,0.020714285714285713,0.011428571428571429,0.0042857142857142851,-0.011428571428571429,0.014285714285714285,0.022142857142857141,-0.03214285714285714,0.022857142857142857,-0.024285714285714285,0.0050000000000000001,-0.0021428571428571425,0.013571428571428571,-0.024999999999999998,-0.032857142857142856,-0.00071428571428571429,-0.0021428571428571425,0.01714285714285714,0.014999999999999999,0.028571428571428571,0.0064285714285714285,-0.012142857142857143,-0.0014285714285714286,0.030714285714285711,-0.00071428571428571429,0.028571428571428571,-0.024999999999999998,-0.0014285714285714286,0.01714285714285714,0.03214285714285714,0.0021428571428571425,-0.016428571428571428,0.01,0.013571428571428571,0.03428571428571428,0.0071428571428571426,-0.01714285714285714,0.029285714285714283,-0.022142857142857141,0.0050000000000000001,-0.015714285714285712,-0.012142857142857143,0.026428571428571426,-0.011428571428571429,-0.011428571428571429,0.027857142857142855,-0.034999999999999996,-0.0071428571428571426,-0.0078571428571428559,0.020714285714285713,0.022857142857142857,0.0035714285714285713,0.016428571428571428,0.03428571428571428,0.00071428571428571429,-0.016428571428571428,-0.015714285714285712,0.017857142857142856,-0.031428571428571424,-0.012857142857142857,0.0035714285714285713,-0.031428571428571424,0.032857142857142856,0.0014285714285714286,-0.00071428571428571429,-0.0028571428571428571,-0.01714285714285714,0.03214285714285714,-0.012857142857142857,0.010714285714285714,-0.01,-0.031428571428571424,0.014285714285714285,0.034999999999999996,0.020714285714285713,-0.029285714285714283,-0.0035714285714285713,-0.013571428571428571,-0.018571428571428572,0.022142857142857141,0.010714285714285714,0.032857142857142856,-0.0014285714285714286,-0.02,-0.019285714285714285,-0.01,0.019285714285714285,-0.032857142857142856,0.0042857142857142851,0.014285714285714285,0.016428571428571428,-0.03214285714285714,0.01714285714285714,0.0021428571428571425,0.0028571428571428571,0.014285714285714285,0.03428571428571428,0.032857142857142856,-0.017857142857142856,-0.014999999999999999,0.02357142857142857,0.0071428571428571426,-0.016428571428571428,-0.010714285714285714,0.022142857142857141,0.033571428571428572,0.021428571428571429,0.030714285714285711,-0.03428571428571428,-0.012857142857142857,0.022857142857142857,0.018571428571428572,-0.029285714285714283,-0.014999999999999999,-0.028571428571428571,-0.017857142857142856,0.035714285714285712,0.029285714285714283,0.019285714285714285,-0.031428571428571424,0.027142857142857142,-0.015714285714285712,-0.0035714285714285713,-0.031428571428571424,-0.0057142857142857143,-0.01714285714285714,-0.029285714285714283,-0.013571428571428571,0.032857142857142856,0.02,-0.033571428571428572,0.0085714285714285701,-0.012142857142857143,-0.03214285714285714,0.033571428571428572,0.00071428571428571429,-0.009285714285714286,0.024285714285714285,-0.011428571428571429,0.01714285714285714,0.0071428571428571426,0.024999999999999998,0.0078571428571428559,-0.0042857142857142851,0.01,0.03428571428571428,0.01714285714285714,0.03428571428571428,-0.020714285714285713,-0.030714285714285711,-0.0014285714285714286,-0.016428571428571428,0.0050000000000000001,-0.0021428571428571425,-0.022142857142857141,-0.029999999999999999,0.0071428571428571426,-0.0014285714285714286,0.0057142857142857143,-0.014999999999999999,-0.0057142857142857143,-0.034999999999999996,0.035714285714285712,0.03428571428571428,0.031428571428571424,-0.019285714285714285,0.034999999999999996,-0.0050000000000000001,0.027857142857142855,0.011428571428571429,0.0021428571428571425,-0.0050000000000000001,0.009285714285714286,-0.032857142857142856,-0.03428571428571428,0.009285714285714286,0.031428571428571424,0.032857142857142856,0.022142857142857141,0,-0.017857142857142856,0.0050000000000000001,-0.033571428571428572,0.027142857142857142,0.011428571428571429,-0.0064285714285714285,0.024999999999999998,-0.019285714285714285,0.026428571428571426,0.032857142857142856,0,0.025714285714285714,-0.03428571428571428,-0.027142857142857142,0.027142857142857142,0.018571428571428572,-0.010714285714285714,-0.013571428571428571,-0.0064285714285714285,0.029285714285714283,0.0085714285714285701,0.031428571428571424,-0.0035714285714285713,-0.011428571428571429,-0.020714285714285713,0.014999999999999999,0.031428571428571424,-0.016428571428571428,-0.031428571428571424,-0.014285714285714285,-0.01,-0.020714285714285713,0.019285714285714285,-0.01,-0.0085714285714285701,-0.017857142857142856,0.032857142857142856,0.0085714285714285701,0.016428571428571428,0.034999999999999996,-0.029999999999999999,0.0014285714285714286,-0.027857142857142855,-0.032857142857142856,-0.021428571428571429,0.017857142857142856,0.014999999999999999,0.02,-0.024285714285714285,-0.030714285714285711,0.017857142857142856,0.0064285714285714285,0.0035714285714285713,0.0078571428571428559,0.025714285714285714,-0.029285714285714283,0.029285714285714283,-0.01714285714285714,-0.0078571428571428559,-0.02357142857142857,-0.026428571428571426,0.024285714285714285,0.02,0.029285714285714283,0.035714285714285712,-0.0064285714285714285,0.010714285714285714,0.0078571428571428559,0.034999999999999996,-0.0042857142857142851,-0.03214285714285714,0.0014285714285714286,-0.016428571428571428,0.00071428571428571429,0.0035714285714285713,-0.0050000000000000001,0.022142857142857141,-0.014285714285714285,0.027857142857142855,-0.025714285714285714,-0.021428571428571429,0.0078571428571428559,-0.009285714285714286,0.0085714285714285701,-0.0064285714285714285,-0.031428571428571424,0.024285714285714285,-0.03214285714285714,-0.015714285714285712,-0.033571428571428572,0.0035714285714285713,-0.009285714285714286,-0.03428571428571428,-0.019285714285714285,-0.031428571428571424,0.017857142857142856,-0.0078571428571428559,-0.02,-0.0035714285714285713,-0.028571428571428571,0.011428571428571429,-0.034999999999999996,-0.030714285714285711,-0.034999999999999996,-0.0050000000000000001,-0.017857142857142856,0.015714285714285712,-0.00071428571428571429,-0.0064285714285714285,-0.014285714285714285,-0.0057142857142857143,-0.009285714285714286,0.026428571428571426,-0.014999999999999999,-0.027142857142857142,-0.03214285714285714,-0.01,0.022142857142857141,0.020714285714285713,-0.01714285714285714,-0.03214285714285714,0.012857142857142857,-0.0035714285714285713,-0.0085714285714285701,-0.03428571428571428,0.024999999999999998,0.031428571428571424,0.0064285714285714285,-0.014285714285714285,-0.012142857142857143,0.0014285714285714286,0.03428571428571428,-0.011428571428571429,0.0021428571428571425,0.011428571428571429,-0.0071428571428571426,0.019285714285714285,-0.03428571428571428,-0.0071428571428571426,0.024999999999999998,0.012142857142857143,-0.0085714285714285701,0.03428571428571428,-0.014285714285714285,0.00071428571428571429,-0.03214285714285714,-0.011428571428571429,-0.026428571428571426,0.029285714285714283,0.02,0.018571428571428572,-0.0014285714285714286,-0.017857142857142856,0.018571428571428572,0.029999999999999999,0.033571428571428572,0.021428571428571429,-0.017857142857142856,-0.0064285714285714285,-0.014999999999999999,-0.012857142857142857,-0.022857142857142857,-0.027142857142857142,-0.0028571428571428571,-0.028571428571428571,-0.011428571428571429,-0.0085714285714285701,0.0064285714285714285,-0.0071428571428571426,-0.030714285714285711,0,-0.03428571428571428,0.03214285714285714,0.0085714285714285701,0.0085714285714285701,-0.022142857142857141,0.011428571428571429,0.02357142857142857,-0.020714285714285713,-0.015714285714285712,-0.011428571428571429,-0.0057142857142857143,0.022142857142857141,0.022857142857142857,-0.028571428571428571,-0.024285714285714285,0.031428571428571424,0.017857142857142856,0.022142857142857141,0.015714285714285712,0.020714285714285713,-0.0028571428571428571,0.033571428571428572,-0.0021428571428571425,0.034999999999999996,0.0028571428571428571,-0.0050000000000000001,-0.01714285714285714,-0.028571428571428571,0.0035714285714285713,0.012857142857142857,0.027142857142857142,-0.028571428571428571,0.013571428571428571,0.017857142857142856,0.026428571428571426,-0.015714285714285712,-0.014285714285714285,-0.0042857142857142851,0.00071428571428571429,0.012142857142857143,-0.0028571428571428571,0.014285714285714285,-0.021428571428571429,0.03214285714285714,-0.0057142857142857143,-0.029999999999999999,-0.010714285714285714,-0.011428571428571429,0,-0.020714285714285713,-0.01,0.017857142857142856,-0.03428571428571428,-0.011428571428571429,0.028571428571428571,-0.033571428571428572,-0.025714285714285714,-0.020714285714285713,0.0014285714285714286,-0.01,-0.015714285714285712,-0.019285714285714285,0.029285714285714283,-0.0071428571428571426,-0.0028571428571428571,0.0050000000000000001,0.021428571428571429,0.03428571428571428,0.029999999999999999,0.028571428571428571,0.026428571428571426,-0.02,0.024999999999999998,0.017857142857142856,-0.0042857142857142851,-0.019285714285714285,-0.025714285714285714,0.030714285714285711,-0.029285714285714283,-0.029999999999999999,0.028571428571428571,0.0035714285714285713,-0.01,-0.016428571428571428,0.032951090519284978,-0.028560584806052957,0.013053325404322724,0.031466331813981618,-0.012141203321859622,0.016411003309730866,-0.027464820053499924,-0.010582603727931007,-0.029034821642001156,0.0035722697410402351,-0.019939762723183884,0.021428262283663298,-0.042509487139543854,-0.0091486419007166028,-0.026232042705900432,-0.011409758673024524,-0.00073733239666469994,-0.013547585799551672,-0.00025641552826415553,-0.023587211050067249,0.03193484120230846,0.0099696630753986389,-0.019149002581575553,-0.018325202144627985,0.020535109501136812,0.028668984276024309,0.020078405858910568,0.00032429516906418149,0.025033732852526962,0.024287386896970655,-0.011041322781506154,0.0098181277695615164,0.008720342436662391,-0.033605437766160283,0.030008158632002378,0.0086330797342627462,0.018571055404597317,-0.025179940330899007,-0.01913733125075941,0.0054770957050824303,0.023152981190323108,0.001516676786737616,-0.024400407906253568,-0.092402950708871626,-0.021120442212015703,-0.0097702944224157175,-0.027890400168687858,-0.0091426179593193484,0.0077315361205387663,0.022556576603213335,0.0045971526241969018,-0.01426109381954588,-0.03879517200380387,0.008655718598521496,-0.030127921676904638,-0.015375613996960536,-0.030335805042320706,0.0059986097824686309,-0.034335475711593545,0.031591954491939973,-0.0084052564513416722,-0.0045977395121684951,-0.013201252800153919,-0.021095014978764107,-0.0063984649703704233,-0.0054236458315169746,0.018317146418348463,-0.027698203793365572,-0.037482347330897003,0.010780579883858422,-0.016528127629015985,-0.019934292342892238,-0.025157868364199028,0.0055515168521128181,0.010933727960739895,-0.0055746930506993244,0.0042779132755494022,-0.017518849301167372,-0.0095220278858677253,0.0070373035731579473,0.011048629717200078,0.024089420906273532,0.010576626301771969,-0.046577315286252911,-0.025451816644919373,-0.026064071580199136,0.03242996205853587,-0.0030609615418687821,0.0012075551968107623,-0.011704550678847911,-0.0074099211166035244,0.095730542883078362,0.020768773823068576,-0.06431793893385411,-0.016830581312098129,0.072089869724937042,-0.011666872942491746,0.025421381221968905,-0.055878656259817021,-0.0016028962093000781,-0.033524974947607353,0.05094897245476971,-0.056101665423010004,-0.013829972320648148,-0.022249967001993338,-0.050610757013128622,0.012296240516986419,0.054621222638245023,-0.048237379889520988,0.023822638661656487,0.021034020291420475,-0.031101995180196573,0.0068871910005869515,0.028222314274756247,0.01591423634970212,0.030879172565251637,0.044337269096358059,0.003743898002458123,0.01575229565127341,-0.0078784158630448749,0.072338220680240262,0.011215927297560368,-0.0011715054151902862,-0.03872467349269524,-0.029165662431022338,0.01528069029196868,0.050530415031135353,-0.018544822877893399,-0.0022209382796574634,-0.028334365192164375,-0.031889978277506448,-0.01028173855301931,0.022686924165932914,0.020964058961675858,-0.016044477113017947,0.025887432451845997,-0.004634747671741977,-0.013408326423391509,-0.02362638573873975,0.04121565894562871,0.021860543900341357,0.061841070742102454,-0.016866151820265594,-0.026810806238370611,0.019469597968761888,0.064504813712097278,0.014594346530181697,0.066540459792835377,-0.0021364157953268834,0.030752826268860507,0.00385449306703194,0.014027209765165497,-0.039440955766688657,0.027368329546600029,0.031663075123932551,-0.031599742765916296,-0.023439861280906256,-0.0032597385054328183,0.021045229725397768,0.0032634047082207495,-0.03066413322245903,-0.023836229067340627,-0.013290684829253387,-0.019198545093296472,0.032861614648334418,0.033283895021478486,0.0239108315011935,0.021743844499627869,0.0042654886504559768,-0.014837648977973334,-0.0098089199193445043,-0.013740364703112946,0.048146815996437262,-0.031725998450952399,0.019178198077052407,0.0023070342193717707,0.069850987550477625,-0.028814090694728164,-0.030670771968554975,0.032036754915276092,-0.067552583164034966,-0.032487865907849835,0.053729696555612341,-0.013820475327301443,-0.021040422934793187,0.016791662531292804,0.034574543210991654,-0.021869975830356856,0.033519158009211694,0.024770259534490205,0.013226461692890244,0.03118376680442116,0.02299771679027383,-0.036474666021833371,-0.0032720644717998074,0.10464688038201311,0.026495995090591171,0.033867533406337094,-0.055307374857397458,-0.0055762449369892494,-0.056981829299599364,0.050780374911747111,-0.071704512490393266,0.011509213867095325,0.086153185509617619,-0.0073613699337595501,-0.010370109263025253,0.24518680865161382,-0.0047055657009383465,0.052826476232400256,0.090291031984103765,-0.0015351760287896374,-0.038244949319520459,0.086948848023126912,0.01195359019664871,0.04249707457443181,0.023289905631556713,0.024827410475509838,0.042156919082655772,0.081374413150802363,0.029284353170578356,-0.0072041998481937016,0.038704363045665054,-0.14442249083951675,-0.24198374869014394,-0.059134727316717671,0.014552625516317592,-0.042909915638541567,-0.024194701335641302,0.072573655965376821,-0.00088224243154376013,0.032763509972852545,0.16694673868711132,-0.027037986199080412,-0.0015211538906462333,0.082395222255258305,-0.011428113029061979,-0.031146232529463684,0.043916482071562082,0.043181679938079004,-0.010909540188653956,-0.023209007592330903,-9.4327465216494661e-005,0.10470674324205718,0.10113693554003772,-0.052270932028194168,0.016369359497471932,-0.00065288579274695659,-0.065920895962281512,-0.18982045575509976,-0.029109709893917476,0.0079819886058087354,-0.092718798902928848,-0.0098469150500766992,0.096156044995250184,0.0080359091288221204,0.018789890791448039,0.20063702980040898,0.0029563202571159016,0.034880400459524584,0.11460224791640915,-0.0050241225665890541,0.026607431359978569,0.055127898672646447,0.039882202274262431,0.014210104257537532,0.012889495890175651,0.04043212424066369,0.059106606559957101,0.10699034969836176,-0.0071119556471588149,0.032034143772286867,-0.0016793984001160253,-0.076162148351815284,-0.21465266064590915,-0.034974982577206069,0.017715077375203569,0.028048259592753894,-0.0077950708572927154,0.011439531887020557,0.021061008703225501,-0.021116476324258584,-0.013452566029543679,-5.6935438045006666e-006,-0.030741302792686158,0.019349882804009417,-0.01859600953752515,0.010610806746583129,-0.03307429768462955,0.0024148080504742772,0.032976787303333491,0.0060985034825075148,0.0098121659915941049,0.027257006175042356,0.010139128444037382,-0.021983880761825142,-0.016478072868043769,-0.0095979411787977045,0.011901604753315847,0.0065963665377586096,0.028643811253751757,0.047156161644758145,-0.053074947273756598,0.024347694735555453,-0.017827370982763938,-0.021068406934696096,-0.027702585549710293,0.0021409440903224263,0.026507601075373935,-0.0085911903231146811,0.02078776308033178,0.0031379250142395958,-0.0029793928329670759,0.024814971948495839,-0.0180372803960283,0.023664459036142969,0.0051854462451895846,-0.075055904444062682,-0.01267235505775199,-0.015088540221007231,0.011873657212608944,-0.004215421228860739,0.039696059850943669,0.0034850244062016901,0.011428285159626902,0.020058226009804746,0.016306174959607175,-0.00038601381407727341,-0.0092729126867255318,-0.0049738703839349264,0.0081805375051601063,-0.032033783681607204,0.032274252622328747,0.015682085999608485,-0.014916960391399404,0.030111675597608786,-0.0039821867738129681,-0.038983803540928598,0.010927213855818704,0.038252055459703276,-0.024284112588124424,0.018569068974453644,-0.029203076284143002,0.019993585888986195,-0.062424402914364178,0.031751894074383238,-0.0067242213542432813,0.067179340239515203,-0.0053326234578664521,0.032351467401990776,0.023629654581233318,0.036306174959602616,-0.050386013814074142,0.0092985158847030402,0.032883272473205494,-0.0075337482091259213,0.015823359175535699,0.022988538336618753,-0.015032199714676675,-0.010631246105685084,0.0072545327404664123,0.0088749560833309357,-0.012555232112361623,0.020927213855819759,0.020394912602564767,0.0078587445547325663,-0.026430931025546348,-0.08563164771271535,0.019279300174700486,-0.040995831485792757,0.023180465502953797,0.0097043500743291024,0.032893625953805447,-0.033189766315010007,-0.026219961169436614,0.024330676764830153,0.012288348315909071,-0.028660321007013472,-0.025764459196479978,-0.013543780026992294,-0.033471955681004639,-0.02335151097256952,0.034732257138906569,-0.018785373157826891,-0.014147215695438956,-0.016005278642394916,-0.010013003466997808,-0.026355563397382948,-0.014333619908839489,0.014151057286786459,0.0045355876966993768,0.098522488993323498,0.014871567907495904,-0.11999915712861235,0.014576035985960072,0.06942694822204297,-0.009013330776432054,-0.026209060116434927,-0.029916035083561235,-0.011208923586506443,3.4101728839323486e-005,0.016851829054428821,-0.029397514059453143,-0.014348780916906291,-0.022836812512840015,-0.0037819088240879711,-0.027189550802128343,-0.013377056792131099,-0.062239878823973575,0.035062714308389267,-0.026821931106538504,0.035703117858582281,-0.028819102293142877,0.0047712930113240236,-0.00026737233370813425,0.0095073720176317485,0.080468934210124993,0.0049208594702641346,-0.11492210425038972,0.0010584845209927649,0.067246877836377686,-0.015740743497289197,0.031619886388074482,-0.020857134829951891,0.020557241919082713,-0.010714285714285714,-0.0035714285714285713,0.0085714285714285701,0.027857142857142855,0.00071428571428571429,-0.033571428571428572,-0.030714285714285711,-0.014285714285714285,-0.030714285714285711,0.0057142857142857143,0.03428571428571428,-0.01714285714285714,-0.032857142857142856,0.029999999999999999,0.014999999999999999,0.022142857142857141,0.03428571428571428,0.021428571428571429,-0.033571428571428572,0.018571428571428572,-0.00071428571428571429,0.018571428571428572,-0.029285714285714283,0.012857142857142857,0.0042857142857142851,0.01,0.015714285714285712,-0.022142857142857141,0.028571428571428571,-0.013571428571428571,0.0050000000000000001,0.01,0.0050000000000000001,-0.01714285714285714,0.014999999999999999,0.022142857142857141,-0.010714285714285714,-0.029285714285714283,-0.033571428571428572,-0.0021428571428571425,-0.013571428571428571,0.014285714285714285,0.030714285714285711,0.016428571428571428,0.010714285714285714,-0.013571428571428571,0.01714285714285714,0.010714285714285714,-0.022857142857142857,0.024285714285714285,0.015714285714285712,0.015714285714285712,-0.0085714285714285701,-0.018571428571428572,0.026428571428571426,-0.032857142857142856,-0.0028571428571428571,-0.015714285714285712,-0.034999999999999996,-0.0050000000000000001,-0.0014285714285714286,0.02,0.0042857142857142851,-0.028571428571428571,0.0042857142857142851,0.02,-0.031428571428571424,0.0035714285714285713,-0.031428571428571424,-0.033571428571428572,-0.034999999999999996,-0.028571428571428571,-0.03428571428571428,-0.0014285714285714286,-0.026428571428571426,0.030714285714285711,0.014999999999999999,-0.024285714285714285,0.026428571428571426,0.014285714285714285,0.034999999999999996,0.00071428571428571429,0.026428571428571426,0.011428571428571429,0.0078571428571428559,0.028571428571428571,0.021428571428571429,-0.012857142857142857,-0.0042857142857142851,0.025714285714285714,-0.01714285714285714,0.015714285714285712,-0.022142857142857141,-0.022142857142857141,-0.024285714285714285,0.035714285714285712,0.010714285714285714,0.0057142857142857143,0.026428571428571426,0.014285714285714285,0.015714285714285712,-0.0035714285714285713,0.026428571428571426,-0.01,0.01,-0.024999999999999998,-0.01,-0.032857142857142856,0.027857142857142855,-0.0071428571428571426,-0.015714285714285712,0.01,0.024999999999999998,-0.012142857142857143,-0.027142857142857142,-0.017857142857142856,-0.010714285714285714,-0.022142857142857141,-0.01,0.014285714285714285,0.027857142857142855,-0.027142857142857142,0,0.024285714285714285,-0.019285714285714285,-0.022142857142857141,-0.009285714285714286,0.0071428571428571426,0.018571428571428572,-0.00071428571428571429,-0.022857142857142857,-0.029999999999999999,-0.021428571428571429,0.015714285714285712,-0.010714285714285714,-0.029285714285714283,-0.022857142857142857,-0.016428571428571428,-0.015714285714285712,-0.027142857142857142,0.0071428571428571426,-0.0085714285714285701,0.02357142857142857,0.0035714285714285713,0,-0.0021428571428571425,-0.019285714285714285,0.017857142857142856,-0.0021428571428571425,0.016428571428571428,0.012142857142857143,0.015714285714285712,0.02,0.018571428571428572,0.03214285714285714,0.021428571428571429,0.00071428571428571429,0.0021428571428571425,0.026428571428571426,0.021428571428571429,-0.01,0.035714285714285712,-0.022142857142857141,0.012142857142857143,-0.031428571428571424,-0.013571428571428571,0.009285714285714286,-0.021428571428571429,-0.018571428571428572,-0.034999999999999996,0.032857142857142856,-0.0050000000000000001,0.035714285714285712,0.028571428571428571,-0.014285714285714285,0.0035714285714285713,0.02357142857142857,-0.032857142857142856,-0.024285714285714285,-0.01714285714285714,0.031428571428571424,0.0035714285714285713,0.024999999999999998,0.0071428571428571426,-0.014285714285714285,-0.03214285714285714,0.032857142857142856,0.018571428571428572,-0.029999999999999999,0.01714285714285714,-0.014285714285714285,0.027857142857142855,-0.02357142857142857,0,0.0057142857142857143,0.035714285714285712,-0.013571428571428571,-0.022857142857142857,0.02,-0.016428571428571428,-0.014999551821752203,0.020765569429480723,0.012859954646572974,-0.0064064957119557443,-0.015714209411606644,0.0039650718136964936,0.02646748244313989,0.017833681418762303,-0.030647238371019545,-0.0064276962255788873,0.012142794327262943,-0.0078885719443114524,-0.0053023985109503227,-0.00066969474803166631,-0.011429784269944156,-0.017141520539455352,0.0057247662581366527,0.0051380483865606221,0.013559353854596695,-0.027248397698422775,0.01358821466691869,0.021402597526677863,0.036577519839892873,-0.022833361768069542,0.024296022699097732,0.012217475888397805,0.028134021140660034,-0.025964391368518469,-0.033548784403164521,0.014285796868286101,-0.021707384761813549,-0.018394681502377275,-0.0057317118645077115,0.011492434885339582,0.0014294168596307396,-0.0071372433631453642,0.018521042793201152,0.010787746100034653,-0.034943307101175373,0.035744930800969174,0.030093397827303522,-0.017739044767058555,0.033602431716473112,-0.015152845832823818,-0.030886941645088605,-0.010592980390336701,0.028464737974120951,0.019171213025830896,0.034309521579406602,0.0071353264105116256,0.022931313424436151,-0.000488691145962441,0.022604225413479399,-0.026428002976921269,0.027142863422750577,-0.010672456575509848,0.027994978911625674,0.00072032100244468085,0.013568244684930902,-0.032857172629078737,-0.012137180547551496,0.014266757594656648,0.012518716039556616,-0.0042736123531401894,0.028603286499482513,-0.012050795918954849,-0.007035239596622743,0.029178669044199187,-0.027283628258848808,0.027790027481905611,0.01510451922845895,0.022776426161728799,-0.030263449671204676,0.024285740490336046,0.029267875139985244,0.01446178374171617,-0.0040235916832059978,-0.0089404575111235157,0.029874487728592719,0.0078996794180200593,0.0071054530716393224,-0.022147198860771652,0.024594651177288627,-0.021634429094110025,0.016650718226228229,-0.014679794047003729,0.0084915024650879783,-0.050703502014604718,-0.027577729665013706,-0.001525165998518641,0.0063174937324152851,-0.015861363940147429,0.015272001318821475,-0.10538463892788522,-0.0083356778001598356,0.063040066376861034,0.037219834390370313,-0.0049529370774074278,0.0098460618678487197,0.011924044655060423,-0.0080680027289119893,-0.0061428656096871948,-0.067023139558156378,-0.10094122456311731,-0.010678370001175514,0.012774816528904692,-0.039239975072547006,0.050902257457020136,-0.039643750471910585,-0.012054887413012742,0.028455541568929554,-0.032173370033468165,-0.0060402513561090302,-0.033395324852711038,0.032128043809894147,0.0020394071072603361,0.048008049385454131,-0.095833090665567791,-0.34151739929106634,-0.077955861370397644,0.078469093132385051,-0.030030689785080247,0.15951880147363637,-0.049856452128005574,0.053067382752544467,-0.037941686305491759,0.051102184491591665,-0.18605328542290411,-0.10548001472242717,0.012671526723194581,-0.16597346353098461,-0.045336121426800879,0.060417172833219082,-0.065850977421911566,0.012682668076189127,0.044477427755565617,-0.025666211508210298,-0.12032726830586621,-7.1367265117831656e-005,0.13139816788617298,0.010159476506285642,0.17029178311467247,-0.15523654447317406,-0.30348554678779716,-0.093169841276593765,0.3122699825461423,0.0007250471179251971,0.13923028029542267,-0.061443196578993116,0.054033584386620849,-0.011159303061103895,0.08924552484221368,-0.17773717089353139,-0.07082143647047745,0.025389280576012509,-0.16278400868976556,-0.033922144759937142,0.15420736285376715,-0.087040384472320639,0.037675936390092306,0.09342079286204881,-0.041364731331291767,-0.1172097872697198,-0.014392783624998327,0.14050696956573611,-0.051763024487500718,0.21320897976375186,-0.15158975855600179,-0.45002292859132026,-0.12805901509364467,0.38416133711027273,0.02112198542799076,0.32780249612200307,-0.059521366421590581,0.18838444948112076,0.013104856160429003,0.11223201485100139,-0.13188554752251805,-0.026392395080395526,-0.056779763308208116,-0.00098211955789685658,-0.06892283534398333,0.073665860650149559,-0.12261142710884801,-0.018766121123571834,0.15648134690906271,-0.032986063866639846,-0.14012322890929058,0.000409104322969642,0.089911458933488425,0.10213107323685972,0.19893222788648035,-0.066343901194308108,-0.034041438224374256,-0.2321878756432037,0.2341898342939128,0.030150323438319752,0.13301064082362152,-0.035085753300290221,0.20396122936969732,0.0022129874949621256,-0.28919135514541233,-0.26988826899494472,0.031383559444701128,-0.17287118656898415,0.24250469790898885,-0.024278058326185761,0.089516409826668655,-0.20345770960475887,0.05278242919063128,0.19116556706884297,0.02963651101527727,-0.13897230352723802,-0.19990859395952301,0.24309755649460515,-0.072369200771609118,0.12858972240200509,0.17282496323196911,0.43488976837944288,-0.0046015289486668123,0.25548833130631576,0.10932670290343648,-0.20678715026798161,0.020680776233084744,-0.03501649458304925,0.031790193350790183,-0.17079133347892358,-0.22280376328098495,0.043035790352309186,-0.14177109036135419,0.13247097129802041,-0.061201485646082819,0.16564133568790443,-0.23082571286417095,0.049107317614763418,0.17217776575284363,0.026110066070733545,-0.2406388623676598,-0.24294331927036913,0.29591362129152632,-0.077147318575578688,0.22327753546443183,0.22854655299507998,0.24464429174015376,0.049266711832804067,0.39275860083004738,0.078724937264291694,-0.23360026144340265,-0.039819699723076217,0.086949320726509974,0.022587662169102667,-0.15225363664350469,0.014061047802586234,0.025417387962004882,-0.30162912522541596,0.041559082288309755,0.041986899935645021,0.18665653956668168,-0.10985197591737789,0.02614403099354129,0.19658143092522093,0.00012099159291071625,-0.17601279561312433,-0.20490031002313136,0.46215193434730384,-0.1125144096126612,0.13243073759159496,0.52819274440003749,0.4125912624629251,0.46316212220192016,0.31585768605073511,0.1548290652198249,-0.60399708937237984,-0.10466500869622743,0.03185949888146665,-0.044136028080342823,0.069826368517649298,-0.082953737771994204,-0.25134601136567841,-0.23456231559068427,-0.20286667122443511,0.0086704709885131875,0.077054542425415595,0.074861497950394373,0.068569323331612281,0.15414791873451866,0.10131224427772755,-0.34549432020078114,-0.34597497486792267,0.38608808132732492,-0.37391910867840755,0.10921400119303687,-0.26048672758519881,0.37831423492949695,0.052813086943651423,-0.050789064053437472,0.25669437046800309,0.035263249637402592,-0.19549427633794431,-0.069437316209824268,0.0068541889587346956,0.18758327234615604,0.073125906300409341,-0.30422249961788544,-0.083731746757996051,-0.46266234673342871,0.041394128738398879,0.17695713875362415,0.038293251969853649,0.097567448884799943,0.16320270584824953,0.11729893147685011,-0.36098145085795624,-0.063405951108982117,0.38296794667765294,-0.33802274618776829,0.18302577608156848,-0.58007318659633456,0.067071394743811394,-0.010258238718602604,-0.12059205191828547,0.22753619580320758,0.027113885754781443,-0.096883539157938611,-0.081229749085632394,0.023038750013775578,0.21697062715483501,0.16026951699590286,-0.31205884195572714,0.06450711111576507,-0.34958787842945444,0.12217941702574033,0.17083499072563552,0.12891473563001701,0.090428864141360185,0.17230944066861559,0.18181069119170085,-0.2046926717215414,-0.071402928518029901,0.23383106840955131,-0.19727464862324992,0.19863176002964761,-0.50271416082179998,0.23135428402738861,-0.027345921538122861,-0.14205464214916388,0.20803688479675228,0.17537737184011623,-0.081281601653995908,-0.042326857398606976,0.10685512678804293,0.22524104017366381,0.2010001622477382,-0.033835342566999431,-0.030650363444058672,-0.24820071247642669,0.090310081217115243,0.034791474821733857,0.034029626157146615,0.0042834267520354182,0.028432852715789714,0.080089532409204772,-0.16504856172151519,0.0029580103803450134,-0.07560402179274972,-0.020307020601390183,0.28266784267965922,-0.24030180666884388,-0.10006903701235423,-0.12493221942138823,0.078564862324591783,-0.11156234304064312,0.20669452784130735,-0.015768219577793029,0.12610268385662163,0.13897902559989239,0.1890523211811766,0.15876119029411412,-0.002415839804588679,0.0053447739806588273,-0.27075539279361954,0.10652591066916066,-0.17067683083739468,-0.06842634890815967,-0.01738658738926737,0.053211845934182253,0.10271644585428423,-0.13093403108032034,0.012935009180720059,-0.1217525151626542,-0.04363667427952328,0.22873435633177069,-0.29049663193950631,-0.076236713755734625,-0.11044016517208781,0.18910437367082722,-0.1370174915089705,0.18938814954566174,-0.030452266622744577,0.15141368959435111,0.00055384631106473537,0.14754911172056651,0.18728318669385977,0.012492367719052959,-0.0099794928122891886,-0.1494475254861008,0.01978050560901513,-0.04946894800861236,-0.11509205132986775,-0.036090516923600144,0.035264642115694959,0.076100805326126467,-0.19454400025933488,-0.033527477098996679,0.073931644414431189,-0.048348690020532187,0.18758995259213465,-0.09064005715450521,-0.10404634845563084,-0.081552487700288293,0.1827177058075872,-0.17757692904277053,0.2350827729165659,-0.045690692900914272,0.02208908762128968,-0.0044711229661196956,0.047189834376317318,-0.014362394247589869,-0.003870861351830502,0.014156090785478562,-0.11284171006848361,-0.032049204257124091,0.049178660032656994,-0.10423823409795209,-0.0045703088742283281,-0.0088191448477786538,0.011334797360819986,-0.09210148972999295,-0.030083911719007251,0.04369486014737408,0.0030519244552458754,0.11906610213491869,-0.056706813189927908,-0.085395240508569323,-0.098368791274183381,0.17374796938440332,-0.089106359436149682,0.16153243161545663,-0.01045965114117297,0.015104120203810627,0.026472382361817638,0.08978966442130025,-0.031918450542928238,-0.016543349650311671,0.02660736398593249,-0.11450273225656879,-0.029477082387259691,0.026725142551218623,-0.12145654777045464,0.032392533070084842,0.049315560197299338,0.030813800254981705,-0.065479510850091641,0.0031754738447719788,0.072647177417988762,-0.039546140627871401,0.23208263165740739,-0.06069079270798363,-0.12500205948428006,-0.071940290101848867,0.19846027278719022,-0.14168009161419517,0.072548971192013478,-0.044111288670200574,0.02003726466690357,-0.0041120959885761789,0.015089005455446813,-0.018951183984421173,0.016281317243389909,-0.028849244791894817,-0.0073856127108640288,0.025060263423533912,0.0066069863625246514,-0.061563790613548754,0.0062807167948344842,-0.0088993882622785403,0.00084876986211054385,-0.039127520288115218,0.022437276170627938,0.0072959057205671139,0.022559562104780155,0.079720666911608687,0.026983417355699583,-0.11090534723271435,0.014904492052002687,0.060475448196611624,0.018768770167332752,-0.025501937843799016,-0.0048578990743519809,-0.029810113544611317,0.00060819740939249277,0.039166324279945236,-0.0060448344626401118,0.006950629107578917,-0.024580981212252096,-0.019885644502527278,-0.010151984053069439,-0.0134783252551733,0.012148737797083196,0.025177316307744394,-0.024378523453942091,0.039114113753408279,0.012858144381572945,0.036554263936427682,-0.025605305380208793,-0.0017803348311488778,0.0092672880261657157,-0.023918071458743275,0.0075397487938157334,-0.0041906461976827514,0.023317783326183419,-0.027436182454530063,-0.028106482209374003,0.025351006766291602,-0.019800590799563103,0.0035714285714285713,0.028571428571428571,-0.014285714285714285,-0.019285714285714285,-0.033571428571428572,0.012857142857142857,0.031428571428571424,-0.0035714285714285713,0.014999999999999999,0.0035714285714285713,-0.01714285714285714,-0.010714285714285714,-0.013571428571428571,-0.0078571428571428559,0.0021428571428571425,-0.0085714285714285701,-0.0028571428571428571,-0.01,0.0028571428571428571,-0.0078571428571428559,-0.012142857142857143,0.017857142857142856,0.013571428571428571,-0.00071428571428571429,0.0064285714285714285,-0.02,0.028571428571428571,0.0035714285714285713,0.0064285714285714285,-0.021428571428571429,-0.011428571428571429,-0.011428571428571429,-0.022857142857142857,0.0064285714285714285,-0.014999999999999999,0.034999999999999996,0.015714285714285712,0.028571428571428571,0.014999999999999999,-0.027142857142857142,-0.0035714285714285713,0.0050000000000000001,0.033571428571428572,0.019285714285714285,0.0042857142857142851,0.026428571428571426,-0.019285714285714285,0.013571428571428571,-0.028571428571428571,0.011428571428571429,-0.013571428571428571,0.021428571428571429,0.015714285714285712,0.033571428571428572,0.0078571428571428559,0.017857142857142856,-0.030714285714285711,0.022142857142857141,0.013571428571428571,0.01714285714285714,0.00071428571428571429,-0.015714285714285712,0.0071428571428571426,0.022857142857142857,-0.0078571428571428559,-0.01,-0.02,0.02357142857142857,-0.022857142857142857,0.018571428571428572,0.012142857142857143,-0.019285714285714285,0.0078571428571428559,-0.012857142857142857,0.0085714285714285701,0.012857142857142857,-0.009285714285714286,-0.029285714285714283,-0.011428571428571429,-0.0021428571428571425,0.0042857142857142851,-0.013571428571428571,-0.0050000000000000001,-0.029285714285714283,0.0064285714285714285,0.0085714285714285701,-0.0042857142857142851,-0.014285714285714285,0.033571428571428572,-0.03428571428571428,-0.020714285714285713,-0.033571428571428572,0.012142857142857143,-0.0021428571428571425,0.014999999999999999,-0.0042857142857142851,0.00071428571428571429,-0.027857142857142855,-0.010714285714285714,-0.030714285714285711,0.013571428571428571,-0.031428571428571424,0.034999999999999996,0.009285714285714286,0.035714285714285712,-0.017857142857142856,0.020714285714285713,-0.014999999999999999,-0.026428571428571426,-0.02,-0.01,-0.0021428571428571425,0.016428571428571428,0,0.02,0.0028571428571428571,-0.032857142857142856,0.017857142857142856,-0.016428571428571428,-0.0035714285714285713,-0.022857142857142857,-0.027142857142857142,0.0021428571428571425,0.01714285714285714,-0.009285714285714286,0.03214285714285714,0.030714285714285711,0.035714285714285712,0.035714285714285712,-0.028571428571428571,0.025714285714285714,-0.014285714285714285,-0.028571428571428571,-0.0042857142857142851,0.012142857142857143,0.024285714285714285,0.0050000000000000001,0.02,-0.0064285714285714285,0.034999999999999996,0.021428571428571429,0.024285714285714285,-0.013571428571428571,-0.01714285714285714,0.03214285714285714,-0.00071428571428571429,0.03214285714285714,-0.03428571428571428,-0.030714285714285711,0.029999999999999999,-0.0085714285714285701,0.033571428571428572,-0.009285714285714286,0.014999999999999999,-0.0021428571428571425,-0.031428571428571424,-0.016428571428571428,0.02,-0.01,-0.029999999999999999,-0.0064285714285714285,0.00071428571428571429,-0.01,0.010714285714285714,-0.018571428571428572,-0.033571428571428572,0.0064285714285714285,-0.00071428571428571429,0.012857142857142857,0.013571428571428571,0.021428571428571429,-0.0021428571428571425,0.012142857142857143,-0.0035714285714285713,-0.029999999999999999,-0.0078426571536213859,-0.011861081232823827,0.024306279529154529,0.027451769935391928,0.030739821335866738,0.0035500362424897036,-0.00065789535448300049,0.00073365547924408663,0.01146950202596545,0.03515263828811617,-0.0078271502849493607,-0.023517776019955375,-0.0055996924847891106,0.030798723902197886,-5.8411908886836968e-005,-0.01223452063497397,0.033486723136133378,-0.030767356769187782,0.029977266233691128,-0.027308737331653319,0.023877368727416158,0.0035914297860473953,0.0085067573227739276,0.023807013443561006,0.032139690421697363,0.0029188838142393692,-0.0129867659306838,0.031041994966781821,0.011735525897121056,0.030697370850470695,-0.013125141444967892,-0.030450514451750402,0.025114784510956327,0.0177725707032408,-0.034119548507686628,-0.02165167597111645,0.010078310022382722,0.025887076331468795,0.011444205586618987,0.00084815258872696759,0.0027541609482699815,0.0065376233274426487,-0.018229404706876159,0.0022499870800512271,-0.012003497964247024,0.032775465203339793,-0.025373921340684832,0.026407944439386249,0.018587877388732615,-0.022540802316177923,0.022207254070143172,-0.054717637658494175,0.018071757805481811,-0.0031985765548554752,0.014332798047617929,0.080322786356600465,-0.012753376975969413,-0.027942244597153967,0.0028823677703394774,0.027050618330122116,-0.016339163737721343,0.02617933236476172,-0.0022421298412060339,0.00060240572874455329,0.0043194230597641339,-0.044489932660536392,0.013466640670619156,0.055596553696347729,0.050338519535392,0.0013444693556383094,-0.053538945018489895,0.06751632567126406,-0.041044048602359981,0.00021928351052134194,-0.077877345637222747,0.028041717914846651,-0.067797826591660712,-0.12514815653690914,-0.14851488197513141,-0.04545669784217219,0.070497634202701095,-0.070418428798325716,0.28860405287295698,-0.051645725328162105,-0.02868164515281062,0.054570961682521783,-0.0078962566852103979,0.0035687118674755732,0.006356491478324431,0.20132706722867996,-0.064113671609053735,0.14773131095226566,-0.37900956915003853,-0.083275256176201309,-0.067666866697063857,0.11237137616380358,0.22693967739483026,0.22573298133750819,-0.064064292511718954,-0.085841268125346107,-0.0091632681055096119,-0.2069470099332818,-0.21705358247794374,-0.14391496204273443,-0.080650057890422427,0.15908766590833301,-0.14215988683357061,0.32718739959678111,-0.20494708272359352,-0.047451566579831822,0.089922286042192406,-0.0028303777654656742,-0.061534111173430252,-0.02822433605458656,0.34251195232912068,-0.16881822088614531,0.26505563161332779,-0.24278210966369529,-0.19630556655442596,-0.013315720430635036,0.15962176709380796,0.2646125505599175,0.10771270098878882,-0.10698629824933226,-0.093753390593263403,0.030132076147132286,-0.23562352537019776,-0.28076250205507841,-0.17069456984889814,-0.088348132170829943,0.03226496734402301,0.071127322975224352,0.18438980518704715,-0.21120734336626723,-0.034522750288760139,0.19428517021418709,0.018315371262935951,-0.051535667733436569,-0.031020122575699402,0.40009916228650583,-0.35863559009382245,0.40782071164790568,0.065605257707653172,-0.070585775591336747,-0.081618106154363226,0.19999608949452885,0.25098439476301321,0.37376205520271633,-0.14241645519023804,0.13647511816064897,0.14590376404766039,-0.068051985469020623,0.078129289332316984,-0.09871525312972293,0.16082126614056449,0.13402053831780844,0.13455049373405487,0.12866687340990837,-0.054190455142941414,0.021610074281954824,0.34189022315655543,0.12139790925918378,-0.047612947593081323,-0.096971225520349286,0.080631982154558329,-0.054868409378651076,0.42916486050528124,0.25082423389969788,0.046807843540534071,0.14408308754045396,0.15628070734426519,0.29486720280218631,0.34180760145924627,-0.17460340922458897,0.18704542399169224,0.14113068343187271,0.081004248374793891,0.15278685965424033,-0.019755818597788452,0.043146607227040668,-0.066244344639533131,0.14729379373234391,0.15117405323796371,-0.10858661717779754,0.10285106216161014,0.16126495102165309,0.076156406005443128,-0.20500797513136212,-0.46254231532383272,0.33015645874034899,0.22964884295534302,0.49256878065583865,0.1264157839885357,0.18661098138102961,0.045213418985043635,0.27995279131093481,0.24557166745544656,0.036385590341210028,-0.11790777346693672,0.16051638116259656,0.23777718404086753,0.096043376129522975,0.35602571409799222,0.053444975911530003,-0.058027622984294126,-0.13852699938894572,0.27340545972202962,0.08381596986545925,-0.33849400315498851,-0.23400629062887571,0.10916708700269113,0.077225289872620395,-0.2322093854357325,-0.61358883996777391,0.24375826584930779,0.54162163858556467,0.27986177074866531,-0.35965958171352819,0.27970380106632226,0.20227531818318595,0.43666981969211893,-0.18396954200894242,-0.26665442697068648,0.026373599038163758,0.17062025609048792,0.27960464354283115,0.17390556052362016,0.07571145957090375,0.22242283206231259,-0.38593985470069975,0.59353017160212274,-0.07561902047866699,0.067903851455127895,-0.206406027953731,-0.075281218909157399,0.3862406044604284,0.10706330684388829,-0.31420922129780604,-0.59518092198463124,0.364601344968359,0.24851162362824517,0.13635675023150934,-0.3445478538001146,0.32320072327418892,0.3359220000199189,0.54962515177453697,0.084047536852903199,-0.45369829366498676,-0.1856862712672952,0.95559558728015159,0.209621242360784,0.040635578206572875,0.042456153850250963,0.22207601465903981,-0.050346155844183817,-0.056042931557625408,0.14210663949516231,0.085021299894806904,-0.72850364522764988,0.079162253011740638,0.10790946727739141,0.025768246902982239,-0.17301308419603123,-0.29829192653538039,0.18185129003478723,0.42316087355703952,-0.085031846925790619,0.24281661713490407,0.46260663972453597,0.33409679075279308,0.72712231182276699,0.010438639992196774,0.24213217048060418,-0.35592601758093295,0.22197258009611529,0.030603185704591824,0.33728062080057558,-1.0714424954439346,-0.026677147628607338,-0.48231923635101626,-0.11509039390438008,0.28346172130388064,0.09987349403077557,-0.33042308434321288,0.2665757969836518,0.045209149819554748,-0.0055053278741814277,0.42656688105283952,-0.60176572066520373,0.4088214487158438,0.34700552676372542,0.025670012352085072,0.1980682877396743,0.50385629963797451,1.187870942250284,0.15319375893529227,0.36824004828121526,0.086281914390805459,-0.4311574313968205,0.14116207686249205,-0.20026034588464597,0.13859039055599467,-0.66655014555326186,-0.011146096303227045,0.033628361883429082,-0.27244665579428162,0.23451945272893795,-0.10022347033879117,-0.24979651245926565,0.23061873684789741,0.06828383980140619,0.17107169828801008,0.020642189025169049,-0.33515672466766905,0.32821784903732193,-0.094862644152302181,0.18824998815167449,-0.73222701904745313,0.024746250198372746,0.20701980637871359,0.36251984773718315,0.12511893221117473,0.76539686884862734,-0.57508659768521753,0.056706731074315009,-0.2079968523524322,0.30677013182631591,-0.33345392146233421,-0.15240879816257494,0.35012502284569064,0.34124779760252305,0.30038953588353356,-0.40161768250131274,-0.42007963058275749,0.29645327526491161,0.24900080977239908,0.041187962374638253,-0.064475601232225052,-0.34833437780105658,0.078666041001944603,-0.39274416684254659,0.47120745274456688,0.12681991759978767,-0.06719663509857117,0.15184322616812279,-0.19591470860498242,0.35768199747362112,0.21105055280087301,-0.24852392178882013,-0.038896707763953479,0.25446565627521778,-0.061397865167449876,-0.66960613174995842,0.027908974860754276,-0.17653441422187124,0.36876934194577099,-0.35664445513430115,-0.056326130625275618,-0.61947531602345873,0.26728020394889263,0.39684342842310955,-0.20901602368876182,0.012991564881157205,-0.32833985352698231,0.064430432734305029,-0.21789745154277174,0.6752688142338622,0.35059686908246418,-0.51348459662990587,-0.33748024867339016,-0.21278911043701385,0.2495771919318206,0.27708034870913612,-0.29872574870103241,-0.053489518966073429,0.49309086638933697,0.32541398550889694,-0.46552403610180176,0.042328681479098358,0.0040191785756434817,0.21777969602307973,-0.32256735843113954,-0.31636886474280834,-0.36247131685133238,0.15628279148431434,0.48823635228901058,0.32052434542980851,-0.52490752852215516,-0.29612110824284055,0.036725482782853043,0.062705407407263575,0.43341630232090861,-0.41305677562981719,-0.15945783084392079,0.061864628572257607,0.29109886749986019,0.022071049538343952,0.82620936128993283,-0.17699214666728566,0.0041890623273549915,0.093265065756621787,0.50488914271669771,-0.13889171354835367,-0.11476615060833219,0.034166375023361194,-0.29089975763729753,0.025454922952117664,0.24999246942001138,-0.21866208437851678,0.06765034826310061,0.28524802436424695,0.31300718556015295,-0.38305901894486988,-0.27574814405379022,0.32330179805041109,-0.031251890767281083,0.20974048351433885,-0.12477434371256248,-0.23726564963804536,-0.19841633254234015,0.50211827258349817,-0.038945922602829343,0.68397647597645694,-0.024392540099837521,0.29765638562298169,0.052054433704059939,0.43219673448380119,0.18280300522514031,-0.075060294544020634,0.20892150762493325,-0.32756987443174079,0.14756101924639184,0.31821154087942133,0.034558234013435996,0.045009060214113807,0.072877558404131737,0.1817221279301412,-0.31963574677063866,0.0078276962258248661,-0.022938753370294787,0.42497137480739344,0.23640435578181773,-0.044092488063055491,-0.024410574956229142,-0.061708198505672496,0.18913344581341276,-0.11177750123020891,0.50287433758348643,0.010779130878640119,0.116447899173,0.14723150427347112,0.090113436229461608,0.12126132532798767,-0.025417431422178123,0.019423841341683564,-0.27411378728540242,0.11721293241804215,-0.012432049528291148,0.021774311674752047,0.07725610516368342,0.28452955073493236,0.14859498122352305,-0.34206786504283648,-0.05577751287876187,-0.19472457003865781,0.49872677441000751,0.16120144805847486,-0.12881222664008088,-0.17362132382097703,0.12036073040433851,0.18007607522112495,-0.11510127502742332,0.2852383725110344,-0.010594015608032272,0.092320257543812873,0.015002944735408398,0.031592805273458743,-0.07963153256129972,0.01643740653794205,-0.065582599821341986,-0.030011327041003562,0.16280246423646946,-0.0075174380876476135,0.13565092322643274,0.0022134708444849446,0.24471946738494843,-0.046928228464827901,-0.4027407979358808,-0.020897995880714296,-0.19612600238975947,0.40801072901007007,0.12591283509281606,0.04183591043099933,-0.079157937774601339,0.12751542202969277,0.024780295607502022,0.10538535384520908,0.23544679786443071,0.039453547599384201,-0.035646336821268818,-0.031104954463945012,0.001803795135994928,0.032074878726123933,-0.015545000009176899,-0.099732797327625855,0.080580350833416858,0.08421619862612599,-0.11790546667098789,0.036688723424288944,-0.0061566586029278116,-0.042565686432897591,-0.011965247288621521,-0.08402692251874716,-0.0050826359657567691,-0.2219557557403268,0.064740191440741571,0.058033062591075088,0.11157320163638751,-0.022867344269818558,0.061851822862079991,-0.14684291524169327,0.074593104159069265,0.096592940926306381,0.046971564798129625,-0.0043472610420793112,-0.029999999999999999,-0.033571428571428572,-0.02,0.01714285714285714,0.019285714285714285,-0.011428571428571429,0.025714285714285714,0.0057142857142857143,0.015714285714285712,0,0.03214285714285714,0.010714285714285714,-0.0078571428571428559,0.020714285714285713,0.013571428571428571,-0.014999999999999999,0.02357142857142857,-0.0064285714285714285,0.03428571428571428,-0.0014285714285714286,0.013571428571428571,-0.0021428571428571425,0.02357142857142857,-0.027857142857142855,0.029285714285714283,-0.032857142857142856,0.0085714285714285701,0.010714285714285714,0.0085714285714285701,-0.027857142857142855,-0.029999999999999999,-0.015714285714285712,0.014285714285714285,0.02357142857142857,-0.025714285714285714,0.029285714285714283,-0.015714285714285712,-0.03428571428571428,-0.0021428571428571425,-0.0035714285714285713,-0.028571428571428571,0.019285714285714285,0.032857142857142856,0.0042857142857142851,0.0014285714285714286,0.0014285714285714286,0.03428571428571428,0.024999999999999998,-0.014285714285714285,0.025714285714285714,0.021428571428571429,0.029999999999999999,-0.02357142857142857,0.012857142857142857,0.03428571428571428,-0.0050000000000000001,-0.016428571428571428,-0.022142857142857141,0.0021428571428571425,0.03214285714285714,0.0021428571428571425,0.03428571428571428,-0.02357142857142857,0.028571428571428571,0.020714285714285713,-0.024285714285714285,0.020714285714285713,-0.027857142857142855,0.0064285714285714285,-0.03428571428571428,0.028571428571428571,0.012142857142857143,-0.020714285714285713,0.033571428571428572,-0.0042857142857142851,0.029999999999999999,0.034999999999999996,-0.0078571428571428559,-0.0014285714285714286,0.03214285714285714,-0.0050000000000000001,0.03428571428571428,0.024285714285714285,-0.01714285714285714,0.030714285714285711,0.010714285714285714,-0.01,0.028571428571428571,0.00071428571428571429,-0.029285714285714283,-0.02357142857142857,-0.013571428571428571,-0.031428571428571424,-0.0050000000000000001,0.0057142857142857143,0.0078571428571428559,-0.016428571428571428,0.027142857142857142,-0.01714285714285714,-0.009285714285714286,-0.022857142857142857,0.010714285714285714,-0.032857142857142856,0.0021428571428571425,-0.022857142857142857,-0.012857142857142857,0.029999999999999999,-0.0042857142857142851,-0.027142857142857142,0.03214285714285714,0.020714285714285713,-0.03428571428571428,-0.0042857142857142851,0.01,0.030714285714285711,0.028571428571428571,-0.031428571428571424,0.015714285714285712,0.024285714285714285,-0.03214285714285714,0.027857142857142855,-0.016428571428571428,-0.015714285714285712,0.03428571428571428,0.0085714285714285701,0.024285714285714285,-0.0035714285714285713,0.011428571428571429,-0.033571428571428572,-0.014285714285714285,-0.024285714285714285,-0.0028571428571428571,0.01714285714285714,-0.016428571428571428,-0.026428571428571426,0.026428571428571426,0.014999999999999999,0.0071428571428571426,0.018571428571428572,0.033571428571428572,-0.0071428571428571426,-0.029999999999999999,-0.022142857142857141,-0.027857142857142855,-0.024285714285714285,-0.016428571428571428,-0.0042857142857142851,0.03428571428571428,0.01714285714285714,0.028571428571428571,0.073169379347629765,0.070470735407556176,0.18542472568959303,-0.032420646939562932,-4.8949240591706404e-005,-0.01294786543642466,0.036795172278316364,0.016958710059468144,0.024462012064329478,0.0069591139267368568,-0.066554641223924349,-0.12177573310819538,0.0085914767870034128,0.046220651029238363,-0.012146794351346003,-0.017786351855147743,-0.0031982396831904073,-0.0057736361498558868,1.4643554111305017e-005,0.012223379399048882,0.0006391125897563984,-0.010329162383025068,0.013555095646851796,0.0085412534857032124,0.00053995617453906535,0.061903094984179251,0.14152606229292453,0.29344337723034952,-0.0091485448407905203,0.10959466450372188,-0.012719034503044489,0.11459091709060282,0.035208141474286588,0.037656661774091396,0.02759501438732195,-0.15255367365355391,-0.078951775238427238,-0.041699213628452365,0.020477776537942707,0.021837440067474172,0.01841498216791055,-0.0041511513642300312,-0.12520498881786693,0.014338104751987917,0.035954464977362488,-0.01514227795621113,-0.10018323506397214,0.16551124094883798,0.098910063643250695,0.0011447010146326921,0.14184729765204382,-0.022979175557578217,-0.082391761902999835,0.035881863073618715,-0.0050326711188682016,0.15546607910601876,-0.031059723826517689,0.056385844506091055,0.0019520267750156588,0.067246161685009409,0.060129641747327156,0.012961880064567359,0.023831820157126957,-0.028157389702599973,-0.011915040780536042,-0.13965173141469192,0.039039036171875499,-0.015842583804018803,0.08785441833337948,0.062763357740191844,0.031777451155915896,0.22472327637537906,0.15281703134055968,0.088972643195488005,0.0056821557855804197,0.11701123046181858,-0.084867833155201106,-0.23897069468840615,-0.036139159850227254,-0.05626521196417248,0.20586430261931529,0.089948638225041899,0.15568141613029815,-0.21319321280933676,0.070702845379360335,0.16481869254727069,0.062147646835927384,-0.060178017040360812,-0.059987462846435607,0.15119071211609586,-0.0027527854016064449,0.15077693616055135,-0.19421080703287472,0.36413680466895526,0.20760384444415805,0.13787913734428328,0.35699555709087571,0.11671561171403455,-0.015673921384709751,-0.18032281281355333,0.12787399811816647,-0.11407358694440747,-0.0068114136580084729,-0.035101740710167431,-0.031026544600330292,0.60694782663021007,0.21757437247660036,0.041409909507514324,-0.71326276021575508,-0.33428197918491798,-0.19155909743759233,0.0039089378916587749,-0.16286379701110668,-0.057492752542486758,0.22421108030716663,-0.21251302883497261,0.0025137513393932685,0.022260270289231505,0.27350805973120651,0.40218601178971358,0.19809165234434303,0.42210680220057939,0.15080489846815476,-0.077255238688970343,-0.19400092176660397,0.34108283921526356,-0.40101855188597901,-0.13680991170261966,-0.086942718572746491,-0.24080863156767709,0.73156415861374136,0.46912433164115608,0.086795330024448059,-0.82673813082308001,-0.27144497598369505,0.54677079464161016,-0.12947570772227859,-0.18882762928559779,-0.13105319729632114,-0.094613130261459483,-0.26493341363281253,-0.0049262775583550399,0.21518999739235239,0.2629368766581815,0.45686529210731019,0.31393019669962446,0.33060713517905443,-0.19729292404121482,-0.13231514782536202,-0.019342443574994712,0.19780616166195711,0.4541025339148706,-0.096259162413579041,-0.18544535883915772,-0.02025836941890196,-0.07337360438046045,0.61627198330058974,0.39805514681364229,-0.80481436520379801,-0.078947876422168065,0.19940394919385457,-0.28614884320272538,-0.22600073460073408,-0.18716570109400818,-0.036157303278270929,-0.086475922285456377,-0.37140976700204303,0.13349952420888153,0.48866705150004497,0.54026509482148377,0.38927088300531015,0.29796318137996441,-0.016346172511876766,-0.22303314254463674,0.35337144885556332,-0.048117818501258805,0.64930248328140694,0.4457067300491146,-0.084677828212062378,0.16502624176065245,-0.50866931122714054,0.22865860944872382,-0.13100232777416823,-0.66910993227593096,0.24096937485547421,-0.14146555231208635,-0.17687193473330973,-0.33104023930472154,-0.30280715561424398,-0.077381028144080696,0.31870981063911058,-0.0013153587151813252,-0.13174580478247783,0.29061271546886541,0.27592927664066874,0.21595427443349033,-0.015040627634306917,0.22945724401536449,-0.21899352500754043,0.33417714290421008,-0.94579807301841801,0.32355837961663719,-0.47430289041973478,-0.065823131156731218,-0.15441639240000402,-0.21258259389474601,-0.3426833509976695,0.60028797507894804,-0.024644243951761208,0.02800465452098214,0.81096530026612734,0.46877387520425601,-0.49486664361985844,-0.040835725630815244,0.17020508637232826,0.11984968088858354,-0.054579826800668231,-0.15664357567053408,0.042617952559984539,-0.24984401421726751,0.54794099563976062,-0.043520101884849026,0.39978794828562442,-0.21893250432988376,0.2561270371099435,-0.36466698413339266,0.69571733273835989,-0.076786521058123169,0.027555916945031473,-0.40940163919703682,0.22541484824854371,-0.38290877717216709,-0.7105015329823996,-0.49658662109653423,0.30613658402232458,0.35312537907897723,0.26906567767160183,-0.14176103056985168,0.062891433654997608,-0.49851312396207803,0.40759512364558254,-0.19211229543180369,0.087149900520379187,0.34571239062201531,0.14495534789528222,-0.024673794450414926,-0.063656656493016425,-0.6785397834082344,0.046391740475940184,-0.028407636501049549,-0.39252950864649339,0.14253336654415669,0.3877151853706764,-0.014650774670964612,0.18287555837236882,0.17270778063407052,0.19298377766900693,0.36313287982373277,-0.12428573589103352,0.6138464660098738,-0.23170229924442848,0.27005959152332476,-0.56269889546978902,0.30842743488840607,0.27436146304229125,0.080482770302052906,0.22795398076001994,0.21326571423969942,0.25460915905794201,0.655937999526362,0.31485828268818156,-0.461672802526927,0.052401085724472524,-0.51439227284857258,0.017256878211980631,-0.1627079315233009,0.34892307140315448,0.67471921800425994,-0.13812390854631695,-0.087166591735474336,-0.53937497127580225,1.225314201766017,0.63418175134965027,-0.14765533972534461,0.69143086799797726,-0.062320358516845462,0.09858526133775436,-0.18991429953012681,-0.4460360222372009,-0.13645714138610904,-0.31323536128552643,0.0052205267225367393,0.10966026610904825,0.5031373776048329,0.69994958914790095,-0.52838194603152666,0.29849767025832924,0.25689971191167132,-0.52003117054869552,-0.29606879701398348,0.34324278353721621,-0.24931215270508564,0.31165230990298981,0.024050807818570302,0.061128284538826572,0.25922818673596698,0.42929984128119081,0.20807683573612273,-0.18557907176601557,0.7270106015776393,-0.084539161248791961,-0.23339970122628426,-0.26968390945489368,-0.19632357583889185,0.41176066064378924,-0.74054800640384122,0.22637315052568013,-0.092048866277551059,-0.23213807749989451,0.51197071351017576,0.13354498453862959,0.54178229935189037,-0.75230153666391408,-0.4103681971270145,-0.5097670294133656,-0.44529960234369842,-0.044598681215949385,0.48585681912436374,-0.48207139581164743,0.31521583024432304,-0.35309843171806049,-0.19108840531979776,0.27004107770496183,0.083773051310349067,0.63217539883638885,-0.19643065929319181,-1.0821658012084356,-0.57816466324470572,0.030155726443865622,0.039629329089103098,-0.055536826394689945,0.73076043602528518,-0.21927578924466334,-0.33335697976353657,0.031676880232934503,0.21711503734785798,0.30347271569068024,-0.32848280021589438,-0.57535695755281246,0.22982013613124569,-0.66343196772728319,-0.30668399278653613,0.21945122114078236,0.47465908989238359,0.11409074761315714,0.29556914743343921,0.22556546495132576,-0.41896355173878125,-0.41666962675087182,0.093220163471287018,0.45061068724635378,0.13605722907351825,-0.41508271067234431,-0.65349870891489259,-0.29545439434505244,-0.37276013612830172,0.51528444506895743,-0.47075014370111806,0.091965475939239177,0.63045551173749814,-0.24785229337278872,0.18192008786055969,0.25742176225020724,-0.1221339406157405,0.23094786680764892,0.56436834394424251,0.12267887929207734,0.10555636744395028,0.34116928369706956,-0.098323285104581645,-0.090651388166610863,0.090022134114765798,-0.81548482285986235,-0.26359926299412517,0.25763075087012149,0.45290204705576564,0.2598959615675786,-0.191676541566561,-0.21742373073733029,-0.55969274901114408,0.070578615501679931,0.6510249181995772,-0.050833790079695865,0.40185921450418949,-0.18745146204396615,-0.19021138201358417,-0.38691088070373386,0.1771209987766563,-0.043501965340441942,0.61620717903688282,-0.21416310393513582,-0.046375209656504192,0.15777830092095299,0.21949110941687267,0.4367770778709803,-0.62615607377374016,0.028603958246067134,-0.0017600124017314524,-0.241760895081292,-0.20165110774185735,0.074158200827308812,0.58138810804809471,0.077137142264283406,-0.6777716122218711,-0.30166421176353264,0.9503113548180977,0.41412477588551055,-0.065274029074892631,1.0268145012845322,0.18566589343898493,-0.55153860435811708,-0.10219403978766065,0.25083545005050734,-0.093812755054317506,0.27021235752959033,-0.31627622020873053,-0.32497389639638408,-0.13794976908383677,-0.15180538340204333,0.14052103009677316,-0.19540242115044823,-0.45479726874451232,0.16651648129321386,0.31172211152424856,0.04518986966735198,0.23597926469315428,1.012381790130602,-0.24138336682344805,-0.37437023749537035,0.36482539122758789,0.046653046178371724,0.16929774980159129,-0.7454796435055433,-0.078316508200006171,-0.68827392144627086,-0.43194752229649314,0.030461178380796535,1.2003904840187207,0.21187265727583662,0.24350306218855883,0.32898986113544082,-0.26630385753662544,0.14248042094692459,-0.35917887554720668,0.33102755067446471,-0.69238690669316172,-0.6074911008687166,-0.36628592875033888,-0.27993949400747697,0.13553448223793224,-0.16628438346805244,0.56398148334566078,-0.78216610956303168,-0.33317193260853928,-0.2112646262235135,-0.059436292159143665,0.38804686547883899,-0.17582645373446554,-0.030788992495302016,-0.29209932856075593,-0.47329579544980538,-0.32173690165961855,0.67496255399595451,0.28518733512179895,0.046067839396985479,-0.040559095751602603,-0.33649533511736107,0.12155896328432261,-0.11716189183022774,-0.0058546858487244415,-0.11633596252457411,-0.16270675251122074,-0.48304773362135017,0.18648216729332623,0.22218652277740802,0.081451649424502531,0.40766403884162172,-0.37488226430218041,-0.4624913057716738,-0.098915472890578643,0.75721394703460265,0.012368849204863856,-0.46692533840748351,0.13113793791610553,0.0093338189710049577,-0.47048073300953958,0.068206677202178378,0.59185583243144524,0.27825834399970084,0.209995226548401,0.081177733616458803,-0.15775931146089286,0.13511111146798516,-0.058880737499373094,-0.31050094842691334,-0.27619202214176169,-0.18795045601293081,-0.010864064306768504,0.21169634071604376,0.17001101330390089,0.23755698044103005,0.39075208757958357,-0.53781444567758885,-0.42467760436856372,-0.0015420222503834851,0.41734070149085778,0.41530546633432802,-0.5326716730101172,-0.13179906038738856,-0.073899453095299397,-0.097342160649514189,-0.092398392126031084,0.8280530783683423,0.067801391628029881,0.025576061460948565,-0.14674004207856511,-0.0077904037851195375,-0.22702144495253354,-0.039166510032010278,-0.022369428108527347,0.026812220981802845,0.0081826262789614201,-0.099529489891020409,0.23454666251985995,0.00026137632321345992,-0.1111528116622733,0.10233182431106827,-0.31719980763399114,-0.1542423730111287,0.077481652830437925,0.29299140768644727,0.25948683409298534,-0.071610914579156276,-0.057770598375946045,-0.056900775828780961,-0.10388446328565416,0.071323977273737474,0.14912675862292935,-0.0049201552474215163,0.089701070673963823,-0.039126566133571107,0.0028497728839375781,-0.17739847944299381,0.053735771962721057,0.29014310844939978,0.021078686963052401,-0.031828746932006401,0.046682201108305406,0.14016877638933889,-0.016312532695271695,0.0009141281720670267,-0.072795826902213479,0.028091804766719495,0.059196156424450662,-0.054698908869760948,0.33020221064867361,0.062350457549225205,-0.056813300765127611,0.18562631406494906,0.1413275365628244,-0.1257013210917716,-0.071784673554563902,0.03172307267124249,0.0083682188627010462,0.076374488661626633,-0.023570926560135326,0.033593546489873775,0.0012929664875049299,-0.013800823051079139,-0.0021019951242638533,0.022593171708291438,-0.02642703587010399,0.014174494886534862,-0.0020427368931190313,-0.034017881297344392,0.002856750623450153,-0.029098996002125496,0.034100944625656562,0.0085283005178342502,0.026407125620932129,0.04078206583267751,-0.024884118208330402,-0.018174235508904717,-0.031019962005692073,-0.031015854606975188,-0.027278508024850857,0.003010141102592151,0.01681417687183127,-0.012149164476113701,0.014861393108497678,-0.032857142857142856,0.025714285714285714,0.0085714285714285701,-0.021428571428571429,-0.022142857142857141,-0.0078571428571428559,0.03214285714285714,0.030714285714285711,0.0028571428571428571,-0.0085714285714285701,-0.0035714285714285713,-0.022142857142857141,-0.027142857142857142,0.015714285714285712,0.03428571428571428,-0.022857142857142857,-0.0085714285714285701,-0.03428571428571428,-0.014285714285714285,0.025714285714285714,-0.024285714285714285,0.012857142857142857,-0.02,-0.022142857142857141,0.020714285714285713,0.03214285714285714,0.01,-0.0014285714285714286,-0.0028571428571428571,0.0021428571428571425,0.017857142857142856,-0.0071428571428571426,-0.018571428571428572,-0.02,0.019285714285714285,0.016428571428571428,0,0.024999999999999998,0.014285714285714285,0.024999999999999998,-0.014285714285714285,-0.016428571428571428,0.0085714285714285701,0.034999999999999996,-0.033571428571428572,0.017857142857142856,-0.022857142857142857,-0.03214285714285714,-0.0035714285714285713,0.0042857142857142851,0.029285714285714283,-0.0021428571428571425,0.0064285714285714285,0.020714285714285713,0.015714285714285712,0.022142857142857141,0.034999999999999996,-0.012857142857142857,0.013571428571428571,-0.012142857142857143,0.022857142857142857,-0.009285714285714286,0.018571428571428572,0.0064285714285714285,-0.012142857142857143,-0.024285714285714285,0.025714285714285714,-0.027142857142857142,-0.024999999999999998,-0.014285714285714285,0.030714285714285711,0.015714285714285712,0.024285714285714285,-0.034999999999999996,0.033571428571428572,-0.0027290191406163554,0.013632480358376333,0.021832486031870185,0.0032186575625766959,-0.016700731747147351,0.013922158135232095,0.034945536796662277,-0.014661517965280587,0.023125394362481653,-0.017424704076174611,-0.021887177140077905,0.0039241424610255912,-0.0030044550496924199,0.024291631284971343,0.011431119218260864,-0.026983408440914226,-0.017957631580334046,0.011284089741423461,-0.033570460311887221,-0.012825452723719996,0.007050638081611659,0.0085665662706863443,0.01034254711378327,0.0045352427882683647,0.0021802391575928186,-0.02434718726797996,-0.048626832037016558,-0.071037559377586101,0.062774577536261505,-0.0046468588686353384,0.025917558926117551,-0.15187046487723077,0.026188513839035685,0.0016352339337935061,-0.020705595612098213,0.032076042975378347,0.067239195874854607,-0.029331213282398995,-0.033517364793217826,-0.063660766674848532,-0.029038371870190129,0.030580421832352177,-0.012270453462771121,0.015528732253050641,-0.085762454542346475,-0.016869440459231059,0.016117562170026949,-0.0019354297673593339,-0.028352884967866102,-0.011608475506542048,0.14133133858378855,0.06708746229509166,0.084000474687749807,0.017482503500057301,0.022639178619540463,0.045264866141646327,0.070321737045344571,0.0062384237165000007,-0.2136996951400881,-0.093371898908021791,-0.048346316865235932,-0.12060313997550136,0.05083542872609819,-0.057468487585175046,-0.054245467883508376,-0.088326966748800223,0.18878898696574969,0.053848141208769879,0.1301588379639704,0.1356929903915492,-0.14754069237674697,0.062741908731018495,-0.16823215306151529,0.042297641609230913,0.008969853538006594,0.14917929334012553,-0.14614180330916587,0.12931687275050407,0.028258386671694419,-0.11421019794626137,0.052674700964198143,0.33003355341956908,0.075469971743557018,-0.71967149785186824,-0.065868982237603416,-0.092930429363303146,0.13022934822940438,-0.028589356042388502,-0.10362446584265013,0.083309455577223593,-0.14780083719541953,0.14360601817776636,-0.098625725237917419,0.098573637773381947,0.28396331786504292,-0.070204472083136668,0.1951984545103691,-0.2439675030728547,-0.025580483373940619,-0.23007805842364656,0.12471006872165998,0.22672510191545914,0.30627863783757187,-0.13602755834210586,-0.20571001643581802,0.29001116804397103,0.13524969395422642,-0.28383502433833052,-0.60247661886228276,-0.29784188739140927,-0.38385036551286744,-0.21709621531778897,-0.038813517789134146,-0.33295988732895482,-0.11558634242309036,0.046155011789625021,0.072349042427516483,-0.32153505704778457,0.37819162901293452,0.51611671875763288,-0.23031582341560983,0.1968651098309919,-0.12832175459083053,-0.029827302744042286,-0.21427610415667553,0.19563559970424749,-0.31719516713634599,-0.10927060882172601,-0.029340528382523462,-0.32437783100327222,0.37844137641361503,0.83903795668461845,0.038054545450043144,-0.4440973855464293,0.24443688124722121,-0.74953403124852624,-0.072815172932928246,-0.14269146512166461,-0.12396622869810811,0.16933709974422917,-0.053664430189396352,0.21796003778916073,0.40346981694112061,0.32272840229610444,0.49066957563822178,-0.16097192989870512,0.38247444066316255,-0.32240602500279064,-0.010696529632319143,0.61716040607764944,0.23636103479594214,-0.4892706325382653,-0.26892382507707058,-0.08844691536844522,-0.43561767089082087,0.3187249192831475,0.75869218060548727,0.094824473843107548,-0.03449946134507674,0.46721754676551086,0.067493013399951854,-0.014457235903699935,-0.085739028794312624,-0.12328358223247746,0.15955769741711848,-0.13453105334223525,0.36674627996447129,0.51996895663741705,0.65934420430500496,0.48592473951605958,-0.13607287015590219,0.13639353612806857,-0.52518409961013124,-0.24128490954898293,0.37634567299871879,0.58677218849745494,0.35471871721750037,-0.85359791831118459,0.32300326549434277,-0.27415144990578794,-0.33173764804233585,0.47264053249094462,-0.0023079654629700407,-0.55240202286806439,0.60697806841958635,-0.0051046819232037164,-0.19846048748213754,-0.32703790115366321,0.18309363991180586,0.19364767659735546,-0.31178726536244944,0.12301117782636004,-0.19783040136124705,0.50788623525637655,-0.21686126572706871,0.12610393175312215,-0.20635522233555828,-0.33994861107902496,-0.30012718137830613,0.70875996494111093,0.22208701595064595,-0.9525517898557625,-0.70278975967421808,0.13201477417653287,-0.83058886425883993,-0.012564671703864516,-0.22326661773367201,0.1395132413837584,-0.040464089478147371,0.073159423699613729,0.51946603154284698,0.20232212947104355,0.41082004433595048,0.20481228837522639,-0.089708537902370863,0.13030523215335252,0.15737656209808326,0.53697783109357455,0.27897883156109587,-0.34297090964541244,0.00071201703970731503,-0.44860698212498307,-1.0284603779832617,-0.37282253841293778,-0.11365370015607973,0.062076055671814977,0.70162929404250407,-0.13554869352977209,0.26435261134080351,0.26006494836948896,-0.0075386331526773121,-0.20017422374867994,-0.034809667657972707,-0.7565546283513237,0.057220330054433506,-0.5286624776311869,0.11285897692348415,0.61636456099981751,0.087966446839684576,0.1473644722554325,-0.32647850835034747,0.23326922189973986,-0.30917587276500885,0.73417471800639733,0.12277514639632803,-0.82551367738475256,0.29374584084848759,0.047590926779220742,0.51134022071520047,-0.079500543178491215,0.03596706368250141,0.1217468042619915,0.56659310770569837,0.49681138345594639,-0.38261879617741051,-0.0089670541338672562,0.55127912265104928,-0.53339075703308469,-0.71153481092030435,0.053709140733798427,-0.053058831346800207,0.016321228456856574,0.15981885123334161,-0.34516303283769706,-0.2046889121902121,-0.22077789812918774,0.16477508436201727,-0.17033519768510161,0.14099327025505909,0.24938075789290287,-0.66202770215757778,-0.51135004770888604,-0.43488919092728434,-0.60762578004034939,-0.57493043297778434,-0.34812839205674345,-0.59895070429968333,0.092321509122876524,0.44138591114149794,-0.70968658957991404,-0.11393435929329433,-0.46797433654530229,-0.15443079647763977,0.81236052618000032,-0.15303489724907707,0.15308841434483619,-0.42369457060754995,-0.36950167206144591,0.3615329816755351,-0.44409081826545738,0.7768724008926543,-0.10630574479249599,0.85718880706108613,0.068057926532080953,0.21847882726145754,-0.6010025304440284,-0.46929758451961534,-0.39871816100033253,-0.11002407238486309,-0.60884307740689392,-0.51160586204773328,0.52411251501781675,0.14401661974643482,0.31172842372415771,-0.12515242787829553,0.29455167402453447,0.11899391823923498,0.23994420332889874,0.11714193033263293,0.10576298430416399,0.67052309376428976,-0.13649203608639288,-0.58853370525884119,-0.45783961589600281,-0.083118883449362968,0.31167016449760787,-0.24346175876634141,0.21079887027234881,-0.19794374220844335,0.50003883128805049,-0.58535884434487306,0.009568320330143619,0.30021466619859677,-0.18866546068208753,-0.20156170062270473,-0.50492053993707819,-0.16922598534860456,0.14865275546813894,0.14037850129591739,0.22655138508493183,0.2130655452405413,0.20642499437257555,-0.24262749156675192,0.10604515055978297,-0.6827694355160121,-0.077734323123028873,-0.40350064609693242,0.17134018219213334,0.28251425284196752,0.27766369156561632,0.27405298588419458,-0.21368274369793516,-0.2247982847498097,-0.19879872867273773,0.78442734005876091,-0.79013939835665781,0.36849200829155571,-0.47473824908701873,-0.33194002074203671,0.035860784673288945,-0.072700182597467994,-0.056898157671031867,0.52443392178157155,-0.031785409719636171,-0.57522106605401913,-0.0054855726716278698,0.044196420101615751,0.37104998052778554,-0.046884235358562357,0.8961837298005999,0.61376619611123651,-0.058722403387654311,0.0081008553142432969,-0.40402386490096098,0.49101294894489605,-0.60588501923688132,0.35442563220662027,0.47533903977074238,0.36083479296039178,0.50517865910312298,-0.25612056551909995,-0.10052107074823038,0.10303207113620998,-0.3780099307452669,0.45105649800547082,-0.24339120299224329,-0.55812337178133387,-0.10222524611016111,-0.3679266707094111,-0.60872335900510255,0.17347709438369158,-0.12768006630311182,0.34704223207947638,0.71299371097393416,0.67697598538212433,0.0019883375658151597,-0.28067403278854619,-0.22325244941754549,-0.23032894831032419,0.17331456647732105,-0.55262093321202987,0.56763571147758207,0.1041120784548185,-0.048029225265486489,0.27368468625249809,-0.33494327856475786,-0.6090661643667562,0.072381543404364729,-0.3262236774878986,-0.10805272172855682,0.74994951531168508,0.79928700167189193,0.024092515544533077,-0.081020010273164245,-0.63111729256267191,-0.05815883507232239,0.19953566099151437,0.33613435219799742,0.47283955442125059,0.036754226218154433,-0.2022137886094687,-0.9479957276065335,-0.11225828080146905,-0.42876067500365544,0.11549001685738566,-0.30823315143162938,0.66634048370916654,0.57155808506288053,0.53812967101411513,-0.25675125254300185,-1.0007067459499672,-0.49454245337559094,0.25435169888592396,-0.39461639966763595,0.54593765070919853,0.22749482024936477,-0.11548401989507234,-0.77242017506816019,-1.1134655410580787,-0.41700697358350158,0.38776082187519262,0.00068374207878791325,-0.20820333623289147,1.1408999332966143,-0.13179843210952269,0.68940323558931704,0.60537854918138623,-0.34060735461647712,0.21038024834369032,0.23945144638041374,0.26421353834991218,0.10880764662156137,0.71589123567919721,1.0842911856672011,0.24282818488917599,-0.46129909411057024,-0.32601786298592317,-0.0093671671219909148,0.052302987009583156,-0.36285770933201866,-0.47885929983669395,0.60859789324548907,0.38641807178366072,-0.033443703679828955,0.27747258359229082,0.12837340992175125,0.096358378821193011,-0.15265231485782743,0.25328599514145278,0.064201252207913201,-0.11387615548459132,0.45603560521719161,0.092804027365609387,-0.23988074689908737,0.26210883938461671,-0.59104733627466199,0.24178724416208255,-0.30621280858946687,0.039800157090106703,0.1006272439548124,-0.49233309299563655,-0.19508412257368901,0.28837451811289155,0.00046854804560896908,-0.12302621736706526,0.17309848744175965,0.52229979160750561,0.18864180580733084,-0.3037883220624773,0.5501430890481237,-0.42144929350937471,0.2532056252093059,-0.41032981194672841,0.14113881645332965,0.098808111822615688,0.38960644065704664,0.27837709089444013,-0.25892389735264365,-0.3626366061410034,0.20263803859359825,0.060972224052137265,-0.174164064555762,0.23304052540675455,-0.29166089410252494,0.063764059441731011,-0.39260100835901629,0.15931688828623239,-0.21783696233455307,-0.25637319288777871,0.23402916116035674,0.40903926410921626,-0.44791428336807365,-0.085125559966765518,-0.3475424776981178,0.17906106949961084,0.33129907034090417,-0.40661365646990111,-0.59662413998605279,0.30699897643677287,0.26930501998607648,0.11176099917275117,0.34145328363428229,-0.10227952056754426,0.32710521894079592,-0.42740321130331388,-0.021664569130320381,-0.50164045641851773,-0.16688267283344269,0.34521127134189894,-0.058732087314106722,-0.38604763861155378,-0.021921063965487191,0.69381800019182971,0.073032346039203763,-0.12595268205080318,0.036166680125401918,-0.13772550873783165,-0.098946740747973022,0.27526719222835683,0.27584781857576873,-0.3357564310888726,-0.39735336751370443,0.25979037351151901,0.2012330465535935,0.22089339396231925,-0.010874648881277191,0.22482827806412195,-0.21078206773870686,0.0068836732640305317,0.2978173344376806,-0.30064544251860675,-0.020117803273894848,-0.46116910069370587,0.14805700189690968,-0.1350630502531211,-0.18989950616005186,0.18590124583044529,1.2663566654545368,0.22310173728768265,0.25126342642357802,-0.098077732879130616,0.17776330785293673,-0.26875635384729007,0.005649160383146043,0.33121670613624093,-0.21022054995170728,-0.48382191229299099,-0.060710071494563395,0.38651766554813871,0.12080023526531336,-0.064314178013919976,0.082906365975966428,0.019238971101287111,0.061677279701570463,0.039625461167965545,0.32719680712061011,-0.031452966026580764,-0.36691918933616829,0.26500141516369158,-0.1353064506387936,-0.18521330139572079,0.23194376279171036,0.75453632299714746,0.089883860813362443,0.14555980656682585,-0.011562399472263505,0.33048663697205438,-0.28284092154133839,0.089286282276857157,0.45356440415352689,-0.10499097028086361,-0.12666755536991073,-0.11748138634010333,0.12883187782921576,0.039060455245033848,-0.011534724525697036,-0.013291736942643961,0.27568674116575048,0.02256298999075524,-0.11627588410669799,0.29583798753319335,0.0090527518386947191,0.025414444087285618,-0.068923491003673135,0.071371741092455879,-0.04757663391247946,0.081078173715760371,0.063294768388096959,0.021470946260829404,0.14788484443393535,0.031001669942188507,0.034251390880515861,-0.050242227670057558,-0.016628333485866852,-0.022480909887812428,-0.008938650206333382,-0.019463891597196675,-0.025933288721618104,-0.024482510761982795,0.018937811338669334,-0.030789010332702954,0.025239790934254772,-0.022635082036543328,0.034216081224740617,-0.066104572183485588,0.029578546715605489,0.018770254610147988,-0.00956103109517349,-0.0012323922183055556,-0.0064666409174379789,-0.01729735214869528,-0.014717828894095749,0.0019654826408386805,0.026187209373355627,-0.058127343820346747,0.010714285714285714,-0.014999999999999999,0.01714285714285714,0,0.00071428571428571429,0.03214285714285714,-0.014285714285714285,0.02357142857142857,0.017857142857142856,0.028571428571428571,0.01,-0.0035714285714285713,-0.022142857142857141,0.030714285714285711,-0.0085714285714285701,0.0050000000000000001,0.03214285714285714,0.010714285714285714,0.009285714285714286,0.014999999999999999,-0.029999999999999999,0,-0.018571428571428572,-0.019285714285714285,-0.025714285714285714,0.0021428571428571425,0.0050000000000000001,0.02,0.024999999999999998,0.024285714285714285,-0.014285714285714285,-0.029285714285714283,-0.009285714285714286,0.025714285714285714,-0.022142857142857141,0.02357142857142857,0.013571428571428571,0.02,0.030714285714285711,0.01714285714285714,0.022857142857142857,-0.026428571428571426,0.022857142857142857,-0.032857142857142856,0.0050000000000000001,-0.017857142857142856,-0.00071428571428571429,0.009285714285714286,0.014285714285714285,-0.012142857142857143,-0.014285714285714285,-0.014285714285714285,0.010714285714285714,-0.03428571428571428,-0.025714285714285714,-0.00071428571428571429,0.027857142857142855,-0.0035714285714285713,-0.0028571428571428571,-0.019285714285714285,0.0035714285714285713,0.014285714285714285,-0.024285714285714285,0.03214285714285714,-0.0064285714285714285,0.009285714285714286,0.029285714285714283,-0.028571428571428571,0.032857142857142856,-0.0085714285714285701,-0.01,-0.028571428571428571,-0.016428571428571428,0.03428571428571428,-0.01,0.031001393108727276,0.047373350397183635,0.0020611517967030332,-0.017882869315738823,-0.053951343221760331,0.023674779313826382,0.033811170224369164,-0.1468878199781542,0.025694839604312292,-0.0060376361494290974,0.034499814031646779,0.030819850257141266,-0.039600589660230986,0.00081210176470451496,-0.052626860971606383,0.023801647937066042,0.077503047109513015,0.053943777831043482,0.030726296477911488,-0.010874198221507855,-0.02989619652571477,-0.0034210054171561009,-0.0018654109217004556,-0.025712392588806504,0.014633630408568075,0.077365508273459643,0.044784913496823654,0.055822748667737933,0.042195605147279602,-0.042689093114738501,-0.038132535153266096,-0.068793936734676056,-0.082045188697564553,-0.027773237656178878,-0.079674956528293941,-0.067108611833512397,-0.053802905037067909,-0.040046177415032844,-0.051756669002476961,-0.091974674829817554,0.096534406278819207,-0.0099548369902392048,0.10085485601551329,0.033467320641511811,0.030233585618171088,-0.14423006668687754,0.06070123623784246,-0.18375352299282272,0.079307676842826372,0.0029145149228412661,0.0034459151505358272,0.13301928461893678,0.15797505774385281,0.21115808243630899,0.11775137322492163,-0.16573622331297663,0.044953385948777701,-0.3021490792820497,-0.13239417562621872,0.26039718757756286,-0.33518659705646059,0.12351784043252181,-0.039775897233830952,-0.42088217238664211,-0.30636949672901553,-0.11129893435935614,0.043235362229103284,-0.020903626024833463,-0.082627055578272754,-0.038219409211217553,-0.53245129979245276,-0.2395671114376883,-0.22857572828824144,-0.010053070370667709,0.51430408071730804,0.20507742728008579,0.039639137436342807,0.22013545618991445,-0.0014930772213918937,-0.13456849216731012,-0.1493945234647665,0.51320419933896,-0.53473396770685144,-0.3967563095007019,0.6395633892853414,-0.12557385771848992,-0.21561600357821969,0.0078260631273950367,-0.027330766456026855,-0.013976032256082276,-0.016822074070633353,-0.023644990438535875,-0.11133497991451205,-0.038317414090487445,0.23694623988551217,-0.16732311278404682,0.24831840245936038,-0.2299537321078631,0.1467334209306502,0.57479238879547212,0.31389616033083018,0.1690205375619607,0.3615218423537499,0.19063855864615351,-0.43018080486132626,-0.025940683884918374,0.30485403581379877,-0.51267584381603015,-0.58385345818537604,0.29946796272521387,-0.68951790952514458,-0.25096341612396855,-0.48829029498900872,-0.36209078681746565,0.15371027111558089,0.2104250030969976,0.26394229048561002,0.17379307638026356,-0.11119206171946175,0.34208481813047092,-0.52369792553023875,0.3274150949945055,-0.36519752127359351,-0.13823070831430459,0.23216975478986243,0.35414569941625701,-0.20397071378327322,-0.58045186571259089,0.29217588585005727,-0.19668778038887616,0.47151900981080624,0.77031988014963459,-0.23729188556586189,-0.37781716673441401,0.12660123779883761,-0.37945841737392666,-0.13031542093812429,-0.71646211718798702,-0.46706092793099585,-0.055378114766220891,0.050649672593961574,-0.17349532310115356,0.02499275294745984,0.084048351975667304,0.44867693557461991,-0.26924515138070026,0.37895924177554718,-0.047168856663951667,0.66065123302343287,0.59557580210052097,0.80633174535294083,0.65493301691525596,-0.64247853529450816,0.35482335009386778,-0.24171046005255503,-0.21064350533688211,0.52530986745612374,-0.047321753769375474,-0.90282953229669749,-0.47237584910277031,-0.39394987450280189,-0.69424092145576488,-0.29706714557899866,0.023014756052005234,-0.46958615112398128,-0.05961794562628684,0.067779569856905808,-0.14354652257408645,0.71660051112254874,-0.081718494252918383,0.12318983439634133,-0.16338763858589891,-0.74650993220778128,0.20786149619134081,0.048127153370241676,0.42812916598876244,0.20576124052744643,0.27739740389561113,-0.17355417202421008,-0.066059621676533384,-0.1121256622625432,0.24805363912005221,-0.092559709172381377,0.03505741671680334,0.65548790824054903,-0.54266003825216935,-0.3618074524638995,-0.42731929382798384,-0.7155852793539258,0.44579855431971183,-0.23191590510336232,0.63761918339722601,-0.84560515041271644,-0.2770599145812373,0.14595065841731286,-0.77957882547295176,0.26527753532448972,-0.55996087686405827,-0.47897124642808375,0.26241641861758375,0.37058841953794103,0.46758018165221837,0.14872779331346558,0.4539060085294665,-0.65701561366442274,-0.23158952852488104,0.4766589768722877,0.17856004860481994,-0.50346740877203033,-0.54130575379845236,0.25757254202693108,0.99502828887685868,0.054128556998357551,-0.58548762610617144,0.5502588655514522,-0.19463210299981593,-0.058663552657093963,0.62836422981926165,0.10401373433979172,0.20664662667754755,-0.40088409232535999,-0.097740270590019551,-0.6784433801009917,-0.64223687621541847,-0.55051997051054435,0.41241656672759164,0.13479398386440952,0.079483457876894384,-0.47861531754226561,-0.12172537916463383,-1.0137659729283235,-0.67994634669035692,0.15364658079884949,0.31507260310398122,-0.27336826307608103,0.12033707771751863,0.39331972879370186,0.97222545132592242,0.13538475147963575,-0.50862173607741046,0.27611061619856581,0.032638418062563894,-0.61205631447932052,-0.37126308674141384,-0.24056423408562269,-0.23283430063870547,-0.44396572006575113,-0.0054478173873611048,-0.27631348240547177,-0.083100959672740657,0.11847315223617319,-0.15959360835024811,0.51607330080705038,-0.11794484257809539,-0.2903336739072549,-0.86144740887399196,0.3527168667791224,-0.28694248268512451,0.10355413658736104,-0.15207962829201294,-0.15469078687927273,0.076904435498719045,-0.7061866404671856,0.27652394916711354,-0.090861142508271972,0.20439705822841359,0.54865555911605846,-0.33673080953550377,-0.23526932090007249,0.8909081930515329,-0.3312787330213095,-0.3470040594254582,0.25550143276246801,0.49322273287598001,-0.15758969554924479,0.27756500835434439,-0.22735205265428332,-0.080867953643186732,0.4758129929932795,-0.30571053955202632,-0.097921388934469153,-0.26385468644733129,-0.23301358694974342,-0.65532731329713922,-0.10764768452632555,-0.58168311821228469,0.0084502290248784171,-0.70855899443353376,0.68922238822673043,0.27695653635458639,-0.17198825854885699,0.26814436057999252,0.92865635395872459,-0.13549251978792526,0.085282490892901644,0.21712887311577109,0.2172224468760236,-0.57657527185190993,0.62542437662246964,-0.2355007510140428,0.54930376968977057,-0.15813534916368771,-0.11221188279697086,-0.2456561696619739,0.25226844573826435,0.2100730679164747,-0.7522861059932322,-0.53013882412555025,-0.14348293951418262,0.5033945014823531,0.53296876507756552,0.98473060445313654,-0.3869942131808583,0.52063066528418622,-0.1726195892529945,0.29880900019299367,0.3418768487459875,0.028774076346261342,0.074982499808442446,0.44713262968881146,0.039879734219370161,0.25444350720523023,-0.11198077403170149,-0.40190566211180473,-0.98919952205444583,0.34628728354543897,0.53914590317232181,-0.24567918399629754,-0.24074221940196369,0.056994495553769356,-0.20408038935218403,-0.55507139478148371,-0.67332319741485835,-0.087441301088258483,-0.20587214317629027,-0.56695435228102098,0.70975002038653001,0.36624776001454756,0.44913938553083183,-0.029548514921395076,0.28033760881906622,-0.13309784087927051,0.35203279363729462,-0.20551076026879106,0.02842017760085053,0.23447034984065487,0.064841268402649921,-0.0080253533552398539,0.37889501859047153,-0.03723367206702892,0.82301543288627155,-0.013235558780164516,-0.21285879673190405,-0.571123962492884,0.36000010030862506,-0.49943013615357351,-0.23691578878742142,-0.78457639697408188,0.26586100221008591,0.098433118903929986,-0.27131626694007377,0.29610128921606804,0.14123643792529661,0.59837693141677173,-0.49123074069936401,0.025701589762731725,-0.12291675938416267,-0.046056121134150349,-0.44972451647212436,-0.34722257051893346,0.90344048308861469,-0.53696348916069359,-0.57909852030814324,-0.4197452536179046,-0.83477020306048377,0.28357370765508044,0.37844217041947081,-1.0093842505768735,0.46835358803539312,-0.90875926715679711,0.46530719043341673,-0.25103822207505283,-0.44293404884988524,0.9966478164817193,-0.18477006336665511,0.53642370348469515,0.32520903763802406,0.085532678660563591,-0.33701590261758868,-0.37492630244105196,-0.32907114902345819,0.30293753611793556,0.072583338838935668,0.83091773443472861,-0.12758449368488536,-0.034080625444537362,-0.35684847634592048,-0.38359559732571152,-0.73209382613270857,0.20829397786811507,-0.71303424877888244,0.33406310688710961,-0.317268094730843,0.37403368599249293,-0.40093900735008969,0.26037047147051279,0.5168253562953663,-0.80618557214574016,0.080757443516019461,-0.30074101261838931,-0.71591576453607364,-0.10614721949828027,0.26774400010423222,0.25392039747880585,-0.41874847775971102,0.11188680067410395,0.57547408106884645,0.12458928619654525,0.0039942375846245166,0.46665999340951475,-0.54080321720497926,-0.92828724825773568,0.14510388766619362,-0.12019424887803547,0.11337692619007841,-0.31679824902536735,-0.36213173454605962,-0.50128205467198816,-0.70168369290639099,-0.23273567742258411,0.62522810415605024,0.093234547996541683,-0.048895747779023509,0.17627049344092879,-0.2166227285997783,-0.45333488635535613,0.36760796939994445,1.1013388009322658,0.45078758979413769,0.53831023728869809,0.29709400555786875,0.16703619224592023,-0.56637020307738217,0.045090439472688801,0.2794679366691763,0.54488550668172975,0.066176630582964455,0.33958184451348689,-0.10261515267097572,-0.28212304927926096,0.22943284014010162,-0.01205698508271614,-0.92442693967506118,0.14993372315792056,-0.52871362707798653,-0.2880659563358644,-0.20766054809915108,-0.43753739582537265,0.16136797493473048,-0.19711112551090726,0.36489762932385034,-0.11113647498622227,0.69336758757937722,0.48576998957295126,-0.51060872568538851,-0.73835123832028537,-0.27907120958387432,0.14617261080745261,-0.17103391922051553,-0.55159873233401535,-0.12123737472451548,0.1948193767280646,-0.045118310585375437,0.29230758353102704,0.003741430935281842,0.2100206284481323,0.40025500271420733,-0.40853277856331283,0.22467125403328889,0.75296631451987206,-0.54534199553288587,-0.36351953830513301,-0.39758424219239891,0.87428594001468762,-0.30421168965539019,0.61307918704241926,-0.13143432760557888,-0.18382833770145016,0.21426231878901472,-0.065932466813391377,-0.41962733220744475,0.035155317894393058,-0.056542296435488491,0.058794660750309362,-0.15870567356392354,-0.17733052879945407,-0.21503392211625344,0.21044293559157681,0.00065122290040309661,0.3844757542821276,0.41671811421868732,-0.2775830534905121,-0.19778323720979521,0.25325114199358872,0.36156278606397585,0.25172139701730584,-0.56497643341074799,-0.29419610420450293,1.0051386776850557,0.28998886592852502,0.56172793512679298,0.22219127976602257,-0.40138739743826962,-0.28921061029136436,-0.24487195790269539,-0.33248654656255616,0.33929760288841687,0.19164671714039247,0.56358808226854673,-0.08766059926315152,-0.64652386124360417,-0.27576917596586453,0.12765148192074954,0.081516065989944819,0.50279701471683313,0.0044076102846393496,-0.23820519331277193,-0.5393391027474056,-0.27454188678501462,0.4767810717802885,0.064823276570799782,-0.91338734833433044,0.22042940035704306,0.98205375203146572,1.2934794627166697,-0.3423148563561822,-0.0030756397590434546,0.31312694393971463,-0.28213369899029234,0.22688666624611495,-0.85410572463275747,-0.26142840131912282,0.099576245738990141,0.37615424047275819,-0.4833453481518783,