0.039264879954810400000000000000,0.08351559670016502100000000000000,0.1113960337095261500000000000000,-0.6271695248477917600000000000000,-0.003621889367885161200000000000000,0.1649353234033542600000000000000,1.687153190291334100000000000000,0.1370637925554130700000000000000,2.191203235739970900000000000000,-0.5111240822926573800000000000000,-0.1227504192801653900000000000000,-0.4657358574693406500000000000000,0.03356136815250766700000000000000,-1.025793895658064800000000000000,0.1424018402394941800000000000000,0.1560075939771659300000000000000,-0.6704896197602541200000000000000,-0.04653355651712320900000000000000,0.1520656522643404300000000000000,1.117226870949791900000000000000,-1.130542285372156300000000000000,0.111324388466411200000000000000,-0.01796960836210148600000000000000,1.990734990733300700000000000000,0.04204029106870171800000000000000,0.1497123605209562900000000000000,0.2156869561735268400000000000000,0.1694452628936982100000000000000,0.816342290714924700000000000000,-0.4897450685715072400000000000000,0.8492914152963039200000000000000,0.8628083212961741300000000000000,-0.1012033691428230700000000000000,2.150433259774577900000000000000,-0.0659503236396730700000000000000,0.05432182978184541700000000000000,2.470000747142050200000000000000,0.1625891264540805500000000000000,0.9758881144639519600000000000000,-0.7623146069682988900000000000000,1.024191492230067900000000000000,-0.5921221175612528800000000000000,0.01785209277945412600000000000000,-0.7840313083451794200000000000000,0.04403165803079819200000000000000,0.1143564512239775600000000000000,-3.402180920087289500000000000000,-0.1195124052965079900000000000000,-3.349838610713760500000000000000,-1.112322817360137400000000000000,0.146674918403340900000000000000,0.6826927485663375500000000000000,-0.08051355024974968200000000000000,1.436621440887259500000000000000,0.01787745670855640800000000000000,0.2154884210789380400000000000000,0.7005886935609685300000000000000,0.2761316696440620500000000000000,-0.2010222471823473500000000000000,-2.834076680745820600000000000000,-1.031444071900267800000000000000,-0.8106765418929173800000000000000,-0.02217377451941143800000000000000,1.696613206590323200000000000000,0.1923885565440981200000000000000,-0.09565231190523866600000000000000,0.5154025305820905100000000000000,0.3275718294073752300000000000000,-0.1679628502122119100000000000000,0.2477949781213463500000000000000,0.1869400400563712400000000000000,-0.5621434127373452500000000000000,-0.1915714614204528900000000000000,-1.125030055225855900000000000000,0.2800463258096687600000000000000,0.1723608117516278200000000000000,1.356231452644063800000000000000,0.1297122364262285900000000000000,-0.5255768745980655700000000000000,-3.151436846374921600000000000000,0.1991447638486614500000000000000,-0.501513001186983500000000000000,-0.162061687340684300000000000000,-1.786012957399612900000000000000,0.2895936794299937600000000000000,-0.04799821799324952700000000000000,-2.96252407323250200000000000000,0.1016788448411553600000000000000,-1.010536119577053200000000000000,1.417622602856230400000000000000,-0.1481788778536662900000000000000,-0.382671496575811400000000000000,-0.2409299649101087900000000000000,-1.847801977382818300000000000000,0.1681590482017539500000000000000,0.3446223872181277100000000000000,1.13496483400037400000000000000,-0.09275962225079359400000000000000,0.309648048090598200000000000000,0.6902216071536304600000000000000,0.09498580265666407800000000000000,0.6437530427741575700000000000000,-0.1813023451143880600000000000000,0.8152295762284632600000000000000,-0.09080891873099078400000000000000,0.01105775450562539500000000000000,-2.347121930508508900000000000000,0.1434740178797764800000000000000,-0.2151428662723900700000000000000,-2.674177299604412200000000000000,0.2729468230860258600000000000000,0.6129973389934364500000000000000,-0.05463702295993496500000000000000,3.910309335058917300000000000000,0.1327929090345502900000000000000,0.004838978932707015600000000000000,1.162730948003672900000000000000,-0.009560135732593991500000000000000,-0.4183388154481794700000000000000,1.837162540918696900000000000000,-3.228292686849926400000000000000,0.04305880270914049700000000000000,-0.208690870180376300000000000000,-0.2189106494789705400000000000000,0.2056387575893838500000000000000,-0.04935709893201770800000000000000,0.2701778533400603400000000000000,0.1553478575164196600000000000000,-1.262970699167442300000000000000,-1.273313015270313800000000000000,0.5152882245508529900000000000000,-0.8257430415199085200000000000000,-0.2739171641468564600000000000000,-1.553039201916233800000000000000,0.1577888124105801300000000000000,0.4029567339533061700000000000000,-2.199787035309573600000000000000,0.0118914900532733500000000000000,2.318579705007247400000000000000,-2.194468596868169200000000000000,3.350271875698694200000000000000,0.03930794755486055600000000000000,-0.1152058227790863600000000000000,-0.2178876325419249200000000000000,-0.05077801566712822300000000000000,0.05951988394380140100000000000000,-0.8513436881586199400000000000000,0.2395092440042981800000000000000,-2.949647560572534300000000000000,3.90918328456342800000000000000,1.235884250089559300000000000000,0.5777099081350318700000000000000,-0.01562685649750829600000000000000,-1.310470530566041800000000000000,0.1766280093665674500000000000000,0.09826609153872700700000000000000,1.809472790940404700000000000000,0.2896518676482258100000000000000,-0.7486912349561493100000000000000,3.901267472817206500000000000000,0.367223610740092800000000000000,-0.2124847537467859600000000000000,0.2658007479939076300000000000000,0.8671328367006865300000000000000,-0.09230215176147654700000000000000,0.1213508001275709800000000000000,1.342678588261762200000000000000,-0.04202469256687153100000000000000,-0.5961491857870218100000000000000,-0.7819416287157325800000000000000,3.885593454606285100000000000000,-5.375101740602343800000000000000,-2.586515646940103200000000000000,0.6609230329705296800000000000000,-0.05534756269553833100000000000000,2.740525675933472600000000000000,-0.264927754464426900000000000000,-0.1906401379727441500000000000000,0.1445121443148367800000000000000,-1.666290100438056100000000000000,5.027531004009657200000000000000,-4.009182655481412300000000000000,0.1413927459966444200000000000000,0.3458421796188869700000000000000,0.8803125948813921300000000000000,-0.1119523146053316600000000000000,0.6377306880902023900000000000000,1.244631072932155900000000000000,-3.852549066227229300000000000000,-3.575829599348721900000000000000,1.184504657694472700000000000000,-0.4121494029511306700000000000000,0.5907352672858465800000000000000,1.017494046958935700000000000000,4.602962083539187800000000000000,4.248842943475950500000000000000,-7.606945491284176500000000000000,4.628489209776719600000000000000,6.337921622733239800000000000000,-3.277818683121664500000000000000,-0.1078224500620078200000000000000,-0.5575285904908464700000000000000,-0.805387855735042900000000000000